<?xml version="1.0" encoding="UTF-8"?>
<!-- This network was created in GeNIe Academic, which can be used for academic teaching and research purposes only -->
<smile version="1.0" id="Network3" numsamples="1000" discsamples="10000">
	<properties>
		<property id="DIAG_alphaValue">0.00000000</property>
		<property id="DIAG_maxAlphaValue">10.00000000</property>
	</properties>
	<nodes>
		<cpt id="燃油油滤1_1" target="true" diagtype="target">
			<state id="阻塞" fault="true" />
			<state id="正常" />
			<probabilities>0.0001 0.9999</probabilities>
		</cpt>
		<cpt id="节流组件积垢1_3_1_1_a" target="true" diagtype="target">
			<state id="发生" fault="true" />
			<state id="未发生" />
			<probabilities>0.0001 0.9999</probabilities>
		</cpt>
		<cpt id="节流组件密封环损坏1_3_1_1_b" target="true" diagtype="target">
			<state id="发生" fault="true" />
			<state id="未发生" />
			<probabilities>0.0001 0.9999</probabilities>
		</cpt>
		<cpt id="节流组件通流量不足1_3_1_1_c" target="true" diagtype="target">
			<state id="发生" fault="true" />
			<state id="未发生" />
			<probabilities>0.0001 0.9999</probabilities>
		</cpt>
		<cpt id="节流组件1_3_1_1" target="true" diagtype="target">
			<state id="故障" fault="true" />
			<state id="正常" />
			<parents>节流组件积垢1_3_1_1_a 节流组件密封环损坏1_3_1_1_b 节流组件通流量不足1_3_1_1_c</parents>
			<probabilities>0.99999001 9.990000000000001e-06 0.9999001 9.99e-05 0.9900099999999999 0.009990000000000001 0.9001 0.0999 0.9999001 9.990000000000002e-05 0.999001 0.0009990000000000001 0.9001 0.0999 0.001000000000000001 0.999</probabilities>
		</cpt>
		<cpt id="压力升高限制器活门卡死1_3_1_a" target="true" diagtype="target">
			<state id="发生" fault="true" />
			<state id="未发生" />
			<probabilities>0.0001 0.9999</probabilities>
		</cpt>
		<cpt id="压力升高限制器1_3_1" target="true" diagtype="target">
			<state id="故障" fault="true" />
			<state id="正常" />
			<parents>节流组件1_3_1_1 压力升高限制器活门卡死1_3_1_a</parents>
			<probabilities>0.999999990001 9.999000000000001e-09 0.99990001 9.999000000000001e-05 0.99990001 9.999000000000001e-05 9.999999999998899e-05 0.9999</probabilities>
		</cpt>
		<cpt id="活门组件1_3_3" target="true" diagtype="target">
			<state id="卡死" fault="true" />
			<state id="正常" />
			<probabilities>0.0001 0.9999</probabilities>
		</cpt>
		<cpt id="燃油调节器1_3" target="true" diagtype="target">
			<state id="故障" fault="true" />
			<state id="正常" />
			<parents>压力升高限制器1_3_1 活门组件1_3_3</parents>
			<probabilities>0.9999999900001 9.999900000000001e-09 0.999900001 9.9999e-05 0.999900001 9.9999e-05 9.99999999995449e-06 0.99999</probabilities>
		</cpt>
		<cpt id="启动燃油阀1_4_1" target="true" diagtype="target">
			<state id="不密封" fault="true" />
			<state id="正常" />
			<probabilities>0.0001 0.9999</probabilities>
		</cpt>
		<cpt id="止回阀1_4_2" target="true" diagtype="target">
			<state id="不密封" fault="true" />
			<state id="正常" />
			<probabilities>0.0001 0.9999</probabilities>
		</cpt>
		<cpt id="启动供油组件1_4" target="true" diagtype="target">
			<state id="故障" fault="true" />
			<state id="正常" />
			<parents>启动燃油阀1_4_1 止回阀1_4_2</parents>
			<probabilities>0.9999990001 9.998999999999999e-07 0.9990000999999999 0.0009999 0.9990000999999999 0.0009999 9.999999999998899e-05 0.9999</probabilities>
		</cpt>
		<cpt id="温度调节器失效1_5_1_a" target="true" diagtype="target">
			<state id="发生" fault="true" />
			<state id="未发生" />
			<probabilities>0.0001 0.9999</probabilities>
		</cpt>
		<cpt id="温度调节器回路断开1_5_1_b" target="true" diagtype="target">
			<state id="发生" fault="true" />
			<state id="未发生" />
			<probabilities>0.0001 0.9999</probabilities>
		</cpt>
		<cpt id="温度调节器接通信号断开1_5_1_c" target="true" diagtype="target">
			<state id="发生" fault="true" />
			<state id="未发生" />
			<probabilities>0.0001 0.9999</probabilities>
		</cpt>
		<cpt id="温度调节器1_5_1" target="true" diagtype="target">
			<state id="故障" fault="true" />
			<state id="正常" />
			<parents>温度调节器失效1_5_1_a 温度调节器回路断开1_5_1_b 温度调节器接通信号断开1_5_1_c</parents>
			<probabilities>0.999999999999 9.99999e-13 0.9999999900000101 9.99999e-09 0.9999999900000101 9.99999e-09 0.9999000001 9.99999e-05 0.9999999900000101 9.99999e-09 0.9999000001 9.99999e-05 0.9999000001 9.99999e-05 1.000000000028756e-06 0.999999</probabilities>
		</cpt>
		<cpt id="分配活门1_5_2_1" target="true" diagtype="target">
			<state id="卡滞在关闭位置" fault="true" />
			<state id="正常" />
			<probabilities>0.0001 0.9999</probabilities>
		</cpt>
		<cpt id="分配阀组件1_5_2" target="true" diagtype="target">
			<state id="故障" fault="true" />
			<state id="正常" />
			<parents>分配活门1_5_2_1</parents>
			<probabilities>0.999900001 9.9999e-05 9.99999999995449e-06 0.99999</probabilities>
		</cpt>
		<cpt id="停车开关组件1_5_3" target="true" diagtype="target">
			<state id="未打开" fault="true" />
			<state id="正常" />
			<probabilities>0.0001 0.9999</probabilities>
		</cpt>
		<cpt id="自动启动器1_5_4_1" target="true" diagtype="target">
			<state id="膜片损坏" fault="true" />
			<state id="正常" />
			<probabilities>0.0001 0.9999</probabilities>
		</cpt>
		<cpt id="启动活门组件1_5_4" target="true" diagtype="target">
			<state id="故障" fault="true" />
			<state id="正常" />
			<parents>自动启动器1_5_4_1</parents>
			<probabilities>0.99990001 9.999000000000001e-05 9.999999999998899e-05 0.9999</probabilities>
		</cpt>
		<cpt id="自动燃油分配器1_5" target="true" diagtype="target">
			<state id="故障" fault="true" />
			<state id="劣化" />
			<state id="正常" />
			<parents>温度调节器1_5_1 分配阀组件1_5_2 停车开关组件1_5_3 启动活门组件1_5_4</parents>
			<probabilities>0.9999999999999999 9.998900100000003e-17 9.999000000000002e-21 0.999999999999 9.989901000000002e-13 9.999000000000001e-16 0.999999999999 9.989901000000002e-13 9.999000000000001e-16 0.9999999900001 9.899910000000002e-09 9.999000000000001e-11 0.999999999999 9.989901000000002e-13 9.999000000000001e-16 0.9999999900001 9.899910000000002e-09 9.999000000000001e-11 0.9999999900001 9.899910000000002e-09 9.999000000000001e-11 0.999900001 9.000000000000001e-05 9.999e-06 0.999999999999 9.989901000000002e-13 9.999000000000001e-16 0.9999999900001 9.899910000000002e-09 9.999000000000001e-11 0.9999999900001 9.899910000000002e-09 9.999000000000001e-11 0.999900001 9.000000000000001e-05 9.999e-06 0.9999999900001 9.899910000000002e-09 9.999000000000001e-11 0.999900001 9.000000000000001e-05 9.999e-06 0.999900001 9.000000000000001e-05 9.999e-06 9.99999999995449e-06 9.00000000000345e-05 0.9999</probabilities>
		</cpt>
		<cpt id="吹扫电磁阀1_6" target="true" diagtype="target">
			<state id="故障" fault="true" />
			<state id="正常" />
			<probabilities>0.0001 0.9999</probabilities>
		</cpt>
		<cpt id="燃油压力开关1_8" target="true" diagtype="target">
			<state id="故障" fault="true" />
			<state id="正常" />
			<probabilities>0.0001 0.9999</probabilities>
		</cpt>
		<cpt id="细油滤1_2_1" target="true" diagtype="target">
			<state id="脏污" fault="true" />
			<state id="正常" />
			<probabilities>0.0001 0.9999</probabilities>
		</cpt>
		<cpt id="压力信号器膜片损坏1_2_2_a" target="true" diagtype="target">
			<state id="发生" fault="true" />
			<state id="未发生" />
			<probabilities>0.0001 0.9999</probabilities>
		</cpt>
		<cpt id="压力信号器接头侵水1_2_2_b" target="true" diagtype="target">
			<state id="发生" fault="true" />
			<state id="未发生" />
			<probabilities>0.0001 0.9999</probabilities>
		</cpt>
		<cpt id="压力信号器1_2_2" target="true" diagtype="target">
			<state id="故障" fault="true" />
			<state id="正常" />
			<parents>压力信号器膜片损坏1_2_2_a 压力信号器接头侵水1_2_2_b</parents>
			<probabilities>0.99995025 4.975e-05 0.999005 0.000995 0.95025 0.04975 0.005000000000000004 0.995</probabilities>
		</cpt>
		<cpt id="齿轮泵严重磨损1_2_a" target="true" diagtype="target">
			<state id="发生" fault="true" />
			<state id="劣化" />
			<state id="未发生" />
			<probabilities>0.0001 0.009900000000000001 0.99</probabilities>
		</cpt>
		<cpt id="齿轮泵空气进入1_2_c" target="true" diagtype="target">
			<state id="发生" fault="true" />
			<state id="未发生" />
			<probabilities>0.0001 0.9999</probabilities>
		</cpt>
		<cpt id="齿轮泵轴封损坏1_2_b" target="true" diagtype="target">
			<state id="发生" fault="true" />
			<state id="未发生" />
			<probabilities>0.0001 0.9999</probabilities>
		</cpt>
		<cpt id="齿轮泵1_2" target="true" diagtype="target">
			<state id="故障" fault="true" />
			<state id="劣化" />
			<state id="正常" />
			<parents>细油滤1_2_1 压力信号器1_2_2 齿轮泵空气进入1_2_c 齿轮泵轴封损坏1_2_b 齿轮泵严重磨损1_2_a</parents>
			<probabilities>0.9999999999400006 5.999930001e-11 9.999000000000002e-17 0.99999994600054 5.39994590001e-08 9.999000000000001e-16 0.9999999400006 5.99984001e-08 9.999000000000002e-13 0.9999999400006 5.99984001e-08 9.999000000000002e-13 0.99994600054 5.399945000100001e-05 9.999000000000002e-12 0.9999400006 5.998940100000001e-05 9.999000000000002e-09 0.9999999994000059 5.998940100000002e-10 9.999000000000002e-14 0.9999994600054 5.399936001000002e-07 9.999000000000002e-13 0.999999400006 5.989941000000001e-07 9.999000000000002e-10 0.999999400006 5.989941000000001e-07 9.999000000000002e-10 0.9994600054 0.0005399846010000001 9.999000000000002e-09 0.999400006 0.0005899950000000001 9.999000000000002e-06 0.9999999400006 5.99984001e-08 9.999000000000002e-13 0.99994600054 5.399945000100001e-05 9.999000000000001e-12 0.9999400006 5.998940100000001e-05 9.999000000000001e-09 0.9999400006 5.998940100000001e-05 9.999000000000001e-09 0.94600054 0.05399936001 9.999000000000001e-08 0.9400006 0.05989941000000001 9.999000000000001e-05 0.999999400006 5.989941000000001e-07 9.999000000000002e-10 0.9994600054 0.0005399846010000001 9.999000000000002e-09 0.999400006 0.0005899950000000001 9.999000000000002e-06 0.999400006 0.0005899950000000001 9.999000000000002e-06 0.4600054 0.5398946099999999 9.999000000000001e-05 0.400006 0.500004 0.09999000000000001 0.999999999900001 9.999800010000002e-11 9.999000000000003e-16 0.9999999100009 8.999909000100002e-08 9.999000000000002e-15 0.999999900001 9.998900100000003e-08 9.999000000000002e-12 0.999999900001 9.998900100000003e-08 9.999000000000002e-12 0.9999100009 8.999900001000001e-05 9.999000000000001e-11 0.999900001 9.989901000000001e-05 9.999000000000001e-08 0.99999999900001 9.989901000000001e-10 9.999000000000002e-13 0.9999991000090001 8.999810010000002e-07 9.999000000000001e-12 0.99999900001 9.89991e-07 9.999000000000001e-09 0.99999900001 9.89991e-07 9.999000000000001e-09 0.999100009 0.0008998910100000001 9.999000000000001e-08 0.99900001 0.0009000000000000001 9.999000000000001e-05 0.999999900001 9.998900100000001e-08 9.999000000000001e-12 0.9999100009 8.999900001000001e-05 9.999e-11 0.999900001 9.989901e-05 9.999e-08 0.999900001 9.989901e-05 9.999e-08 0.9100009 0.08999810010000001 9.998999999999999e-07 0.9000010000000001 0.09899910000000001 0.0009999 0.99999900001 9.89991e-07 9.999000000000001e-09 0.999100009 0.0008998910100000001 9.999000000000001e-08 0.99900001 0.0009000000000000001 9.999000000000001e-05 0.99900001 0.0009000000000000001 9.999000000000001e-05 0.1000089999999999 0.8989911 0.0009999 9.99999999995449e-06 9.00000000000345e-05 0.9999</probabilities>
		</cpt>
		<cpt id="节流器1_7_1" target="true" diagtype="target">
			<state id="积垢" fault="true" />
			<state id="正常" />
			<probabilities>0.0001 0.9999</probabilities>
		</cpt>
		<cpt id="故障燃油排放阀回路短路断路1_7_a" target="true" diagtype="target">
			<state id="发生" fault="true" />
			<state id="未发生" />
			<probabilities>0.0001 0.9999</probabilities>
		</cpt>
		<cpt id="故障燃油排放阀1_7" target="true" diagtype="target">
			<state id="故障" fault="true" />
			<state id="劣化" />
			<state id="正常" />
			<parents>节流器1_7_1 故障燃油排放阀回路短路断路1_7_a</parents>
			<probabilities>0.9999400000599999 5.899995000000001e-05 9.999900000000001e-07 0.4000005999999999 0.5000004 0.099999 0.9999000001 9.000000000000001e-05 9.999900000000001e-06 9.999999999177334e-07 9.000000000036756e-06 0.99999</probabilities>
		</cpt>
		<cpt id="燃油系统1" target="true" diagtype="target">
			<state id="故障" fault="true" />
			<state id="劣化" fault="true" />
			<state id="报警" />
			<state id="正常" />
			<parents>燃油油滤1_1 燃油压力开关1_8 吹扫电磁阀1_6 齿轮泵1_2 燃油调节器1_3 启动供油组件1_4 自动燃油分配器1_5 故障燃油排放阀1_7</parents>
			<probabilities>1 2.999969900010002e-29 9.998999900100006e-37 9.989999999999998e-45 1 2.969970210009001e-25 8.999099900100004e-33 9.989999999999999e-41 1 2.999969000100001e-25 9.998999001000006e-32 9.989999999999999e-39 1 2.969970210009001e-25 8.999099900100004e-33 9.989999999999999e-41 1 2.940270516008101e-21 8.099189900100003e-29 9.99e-37 1 2.969969400090001e-21 8.999099001000004e-28 9.989999999999999e-35 1 2.999969000100001e-25 9.998999001000006e-32 9.989999999999999e-39 1 2.969969400090001e-21 8.999099001000004e-28 9.989999999999999e-35 1 2.999960001000001e-21 9.998990010000003e-27 9.99e-33 1 2.999969000100001e-25 9.998999001000006e-32 9.989999999999999e-39 1 2.969969400090001e-21 8.999099001000004e-28 9.989999999999999e-35 1 2.999960001000001e-21 9.998990010000003e-27 9.99e-33 1 2.969969400090001e-21 8.999099001000004e-28 9.989999999999999e-35 1 2.940269787081001e-17 8.099189001000001e-24 9.990000000000001e-31 1 2.969961300900001e-17 8.999090010000002e-23 9.99e-29 1 2.999960001000001e-21 9.998990010000003e-27 9.99e-33 1 2.969961300900001e-17 8.999090010000002e-23 9.99e-29 1 2.999870010000001e-17 9.998900100000002e-22 9.99e-27 1 2.999969000100001e-25 9.998999001000006e-32 9.989999999999999e-39 1 2.969969400090001e-21 8.999099001000004e-28 9.989999999999999e-35 1 2.999960001000001e-21 9.998990010000003e-27 9.99e-33 1 2.969969400090001e-21 8.999099001000004e-28 9.989999999999999e-35 1 2.940269787081001e-17 8.099189001000001e-24 9.990000000000001e-31 1 2.969961300900001e-17 8.999090010000002e-23 9.99e-29 1 2.999960001000001e-21 9.998990010000003e-27 9.99e-33 1 2.969961300900001e-17 8.999090010000002e-23 9.99e-29 1 2.999870010000001e-17 9.998900100000002e-22 9.99e-27 1 2.999960001000001e-21 9.998990010000003e-27 9.99e-33 1 2.969961300900001e-17 8.999090010000002e-23 9.99e-29 1 2.999870010000001e-17 9.998900100000002e-22 9.99e-27 1 2.969961300900001e-17 8.999090010000001e-23 9.990000000000001e-29 0.999999999999706 2.940262497810001e-13 8.09918001e-19 9.990000000000001e-25 0.999999999999703 2.969880309000001e-13 8.9990001e-18 9.990000000000001e-23 1 2.999870010000001e-17 9.998900100000002e-22 9.99e-27 0.999999999999703 2.969880309000001e-13 8.9990001e-18 9.990000000000001e-23 0.9999999999997 2.998970100000001e-13 9.998001000000001e-17 9.99e-21 1 2.969970210009001e-25 8.999099900100004e-33 9.989999999999999e-41 1 2.9402705160081e-21 8.099189900100003e-29 9.99e-37 1 2.969969400090001e-21 8.999099001000004e-28 9.989999999999999e-35 1 2.9402705160081e-21 8.099189900100001e-29 9.989999999999998e-37 1 2.91086781813729e-17 7.289270900100001e-25 9.989999999999999e-33 1 2.940269787081001e-17 8.099189001000001e-24 9.989999999999999e-31 1 2.969969400090001e-21 8.999099001000004e-28 9.989999999999999e-35 1 2.940269787081001e-17 8.099189001000001e-24 9.989999999999999e-31 1 2.9699613009e-17 8.999090010000002e-23 9.989999999999999e-29 1 2.969969400090001e-21 8.999099001000004e-28 9.989999999999999e-35 1 2.940269787081001e-17 8.099189001000001e-24 9.989999999999999e-31 1 2.9699613009e-17 8.999090010000002e-23 9.989999999999999e-29 1 2.940269787081001e-17 8.099189001000001e-24 9.989999999999999e-31 0.9999999999997089 2.910867162102901e-13 7.289270001000001e-20 9.99e-27 0.999999999999706 2.94026249781e-13 8.099180010000001e-19 9.989999999999999e-25 1 2.9699613009e-17 8.999090010000002e-23 9.989999999999999e-29 0.999999999999706 2.94026249781e-13 8.099180010000001e-19 9.989999999999999e-25 0.999999999999703 2.969880309e-13 8.999000100000002e-18 9.99e-23 1 2.969969400090001e-21 8.999099001000004e-28 9.989999999999999e-35 1 2.940269787081001e-17 8.099189001000001e-24 9.989999999999999e-31 1 2.9699613009e-17 8.999090010000002e-23 9.989999999999999e-29 1 2.940269787081001e-17 8.099189001000001e-24 9.989999999999999e-31 0.9999999999997089 2.910867162102901e-13 7.289270001000001e-20 9.99e-27 0.999999999999706 2.94026249781e-13 8.099180010000001e-19 9.989999999999999e-25 1 2.9699613009e-17 8.999090010000002e-23 9.989999999999999e-29 0.999999999999706 2.94026249781e-13 8.099180010000001e-19 9.989999999999999e-25 0.999999999999703 2.969880309e-13 8.999000100000002e-18 9.99e-23 1 2.9699613009e-17 8.999090010000002e-23 9.989999999999999e-29 0.999999999999706 2.94026249781e-13 8.099180010000001e-19 9.989999999999999e-25 0.999999999999703 2.969880309e-13 8.999000100000002e-18 9.99e-23 0.999999999999706 2.940262497810001e-13 8.099180010000001e-19 9.989999999999999e-25 0.9999999970891321 2.910860601759001e-09 7.28926101e-15 9.99e-21 0.9999999970597294 2.940189605100001e-09 8.0990901e-14 9.99e-19 0.999999999999703 2.969880309e-13 8.999000100000002e-18 9.99e-23 0.9999999970597294 2.940189605100001e-09 8.0990901e-14 9.99e-19 0.9999999970300297 2.96907039e-09 8.998101e-13 9.990000000000001e-17 1 2.999969000100001e-25 9.998999001000006e-32 9.989999999999999e-39 1 2.969969400090001e-21 8.999099001000004e-28 9.989999999999999e-35 1 2.999960001000001e-21 9.998990010000003e-27 9.99e-33 1 2.969969400090001e-21 8.999099001000004e-28 9.989999999999999e-35 1 2.940269787081001e-17 8.099189001000001e-24 9.990000000000001e-31 1 2.969961300900001e-17 8.999090010000002e-23 9.99e-29 1 2.999960001000001e-21 9.998990010000003e-27 9.99e-33 1 2.969961300900001e-17 8.999090010000002e-23 9.99e-29 1 2.999870010000001e-17 9.998900100000002e-22 9.99e-27 1 2.999960001000001e-21 9.998990010000003e-27 9.99e-33 1 2.969961300900001e-17 8.999090010000002e-23 9.99e-29 1 2.999870010000001e-17 9.998900100000002e-22 9.99e-27 1 2.969961300900001e-17 8.999090010000001e-23 9.990000000000001e-29 0.999999999999706 2.940262497810001e-13 8.09918001e-19 9.990000000000001e-25 0.999999999999703 2.969880309000001e-13 8.9990001e-18 9.990000000000001e-23 1 2.999870010000001e-17 9.998900100000002e-22 9.99e-27 0.999999999999703 2.969880309000001e-13 8.9990001e-18 9.990000000000001e-23 0.9999999999997 2.998970100000001e-13 9.998001000000001e-17 9.99e-21 1 2.999960001000001e-21 9.998990010000003e-27 9.99e-33 1 2.969961300900001e-17 8.999090010000002e-23 9.99e-29 1 2.999870010000001e-17 9.998900100000002e-22 9.99e-27 1 2.969961300900001e-17 8.999090010000001e-23 9.990000000000001e-29 0.999999999999706 2.940262497810001e-13 8.09918001e-19 9.990000000000001e-25 0.999999999999703 2.969880309000001e-13 8.9990001e-18 9.990000000000001e-23 1 2.999870010000001e-17 9.998900100000002e-22 9.99e-27 0.999999999999703 2.969880309000001e-13 8.9990001e-18 9.990000000000001e-23 0.9999999999997 2.998970100000001e-13 9.998001000000001e-17 9.99e-21 1 2.999870010000001e-17 9.998900100000002e-22 9.99e-27 0.999999999999703 2.969880309000001e-13 8.9990001e-18 9.990000000000001e-23 0.9999999999997 2.998970100000001e-13 9.998001000000001e-17 9.99e-21 0.999999999999703 2.969880309e-13 8.999000100000002e-18 9.99e-23 0.9999999970597294 2.940189605100001e-09 8.0990901e-14 9.99e-19 0.9999999970300297 2.96907039e-09 8.998101e-13 9.990000000000001e-17 0.9999999999997 2.998970100000001e-13 9.998001000000001e-17 9.99e-21 0.9999999970300297 2.96907039e-09 8.998101e-13 9.990000000000001e-17 0.9999999970000299 2.989971e-09 9.989010000000001e-12 9.99e-15 1 2.999969000100001e-25 9.998999001000006e-32 9.989999999999999e-39 1 2.969969400090001e-21 8.999099001000004e-28 9.989999999999999e-35 1 2.999960001000001e-21 9.998990010000003e-27 9.99e-33 1 2.969969400090001e-21 8.999099001000004e-28 9.989999999999999e-35 1 2.940269787081001e-17 8.099189001000001e-24 9.990000000000001e-31 1 2.969961300900001e-17 8.999090010000002e-23 9.99e-29 1 2.999960001000001e-21 9.998990010000003e-27 9.99e-33 1 2.969961300900001e-17 8.999090010000002e-23 9.99e-29 1 2.999870010000001e-17 9.998900100000002e-22 9.99e-27 1 2.999960001000001e-21 9.998990010000003e-27 9.99e-33 1 2.969961300900001e-17 8.999090010000002e-23 9.99e-29 1 2.999870010000001e-17 9.998900100000002e-22 9.99e-27 1 2.969961300900001e-17 8.999090010000001e-23 9.990000000000001e-29 0.999999999999706 2.940262497810001e-13 8.09918001e-19 9.990000000000001e-25 0.999999999999703 2.969880309000001e-13 8.9990001e-18 9.990000000000001e-23 1 2.999870010000001e-17 9.998900100000002e-22 9.99e-27 0.999999999999703 2.969880309000001e-13 8.9990001e-18 9.990000000000001e-23 0.9999999999997 2.998970100000001e-13 9.998001000000001e-17 9.99e-21 1 2.999960001000001e-21 9.998990010000003e-27 9.99e-33 1 2.969961300900001e-17 8.999090010000002e-23 9.99e-29 1 2.999870010000001e-17 9.998900100000002e-22 9.99e-27 1 2.969961300900001e-17 8.999090010000001e-23 9.990000000000001e-29 0.999999999999706 2.940262497810001e-13 8.09918001e-19 9.990000000000001e-25 0.999999999999703 2.969880309000001e-13 8.9990001e-18 9.990000000000001e-23 1 2.999870010000001e-17 9.998900100000002e-22 9.99e-27 0.999999999999703 2.969880309000001e-13 8.9990001e-18 9.990000000000001e-23 0.9999999999997 2.998970100000001e-13 9.998001000000001e-17 9.99e-21 1 2.999870010000001e-17 9.998900100000002e-22 9.99e-27 0.999999999999703 2.969880309000001e-13 8.9990001e-18 9.990000000000001e-23 0.9999999999997 2.998970100000001e-13 9.998001000000001e-17 9.99e-21 0.999999999999703 2.969880309e-13 8.999000100000002e-18 9.99e-23 0.9999999970597294 2.940189605100001e-09 8.0990901e-14 9.99e-19 0.9999999970300297 2.96907039e-09 8.998101e-13 9.990000000000001e-17 0.9999999999997 2.998970100000001e-13 9.998001000000001e-17 9.99e-21 0.9999999970300297 2.96907039e-09 8.998101e-13 9.990000000000001e-17 0.9999999970000299 2.989971e-09 9.989010000000001e-12 9.99e-15 1 2.969969400090001e-21 8.999099001000002e-28 9.989999999999999e-35 1 2.940269787081001e-17 8.099189001e-24 9.989999999999999e-31 1 2.969961300900001e-17 8.999090010000001e-23 9.989999999999999e-29 1 2.940269787081001e-17 8.099189001000001e-24 9.989999999999999e-31 0.9999999999997089 2.910867162102901e-13 7.289270000999999e-20 9.99e-27 0.999999999999706 2.940262497810001e-13 8.09918001e-19 9.989999999999999e-25 1 2.969961300900001e-17 8.999090010000001e-23 9.989999999999999e-29 0.999999999999706 2.940262497810001e-13 8.09918001e-19 9.989999999999999e-25 0.999999999999703 2.969880309000001e-13 8.9990001e-18 9.99e-23 1 2.969961300900001e-17 8.999090010000001e-23 9.989999999999999e-29 0.999999999999706 2.940262497810001e-13 8.09918001e-19 9.989999999999999e-25 0.999999999999703 2.969880309000001e-13 8.9990001e-18 9.99e-23 0.999999999999706 2.940262497810001e-13 8.09918001e-19 9.989999999999999e-25 0.9999999970891321 2.910860601759001e-09 7.289261009999999e-15 9.99e-21 0.9999999970597294 2.940189605100001e-09 8.099090099999999e-14 9.99e-19 0.999999999999703 2.969880309000001e-13 8.9990001e-18 9.99e-23 0.9999999970597294 2.940189605100001e-09 8.099090099999999e-14 9.99e-19 0.9999999970300297 2.969070390000001e-09 8.998100999999999e-13 9.990000000000001e-17 1 2.969961300900001e-17 8.999090010000001e-23 9.989999999999999e-29 0.999999999999706 2.940262497810001e-13 8.09918001e-19 9.989999999999999e-25 0.999999999999703 2.969880309000001e-13 8.9990001e-18 9.99e-23 0.999999999999706 2.940262497810001e-13 8.09918001e-19 9.989999999999999e-25 0.9999999970891321 2.910860601759001e-09 7.289261009999999e-15 9.99e-21 0.9999999970597294 2.940189605100001e-09 8.099090099999999e-14 9.99e-19 0.999999999999703 2.969880309000001e-13 8.9990001e-18 9.99e-23 0.9999999970597294 2.940189605100001e-09 8.099090099999999e-14 9.99e-19 0.9999999970300297 2.969070390000001e-09 8.998100999999999e-13 9.990000000000001e-17 0.999999999999703 2.969880309000001e-13 8.9990001e-18 9.99e-23 0.9999999970597294 2.940189605100001e-09 8.099090099999999e-14 9.99e-19 0.9999999970300297 2.969070390000001e-09 8.998100999999999e-13 9.990000000000001e-17 0.9999999970597294 2.940189605100001e-09 8.099090099999999e-14 9.99e-19 0.9999708913210897 2.910794998320001e-05 7.289171099999997e-10 9.990000000000002e-15 0.99997059729403 2.939460678e-05 8.098190999999997e-09 9.990000000000001e-13 0.9999999970300297 2.969070390000001e-09 8.998100999999999e-13 9.990000000000001e-17 0.99997059729403 2.939460678e-05 8.098190999999997e-09 9.990000000000001e-13 0.999970300297 2.960971200000001e-05 8.989109999999999e-08 9.990000000000001e-11 1 2.999960001000001e-21 9.998990010000003e-27 9.99e-33 1 2.969961300900001e-17 8.999090010000002e-23 9.99e-29 1 2.999870010000001e-17 9.998900100000002e-22 9.99e-27 1 2.969961300900001e-17 8.999090010000001e-23 9.990000000000001e-29 0.999999999999706 2.940262497810001e-13 8.09918001e-19 9.990000000000001e-25 0.999999999999703 2.969880309000001e-13 8.9990001e-18 9.990000000000001e-23 1 2.999870010000001e-17 9.998900100000002e-22 9.99e-27 0.999999999999703 2.969880309000001e-13 8.9990001e-18 9.990000000000001e-23 0.9999999999997 2.998970100000001e-13 9.998001000000001e-17 9.99e-21 1 2.999870010000001e-17 9.998900100000002e-22 9.99e-27 0.999999999999703 2.969880309000001e-13 8.9990001e-18 9.990000000000001e-23 0.9999999999997 2.998970100000001e-13 9.998001000000001e-17 9.99e-21 0.999999999999703 2.969880309e-13 8.999000100000002e-18 9.99e-23 0.9999999970597294 2.940189605100001e-09 8.0990901e-14 9.99e-19 0.9999999970300297 2.96907039e-09 8.998101e-13 9.990000000000001e-17 0.9999999999997 2.998970100000001e-13 9.998001000000001e-17 9.99e-21 0.9999999970300297 2.96907039e-09 8.998101e-13 9.990000000000001e-17 0.9999999970000299 2.989971e-09 9.989010000000001e-12 9.99e-15 1 2.999870010000001e-17 9.998900100000002e-22 9.99e-27 0.999999999999703 2.969880309000001e-13 8.9990001e-18 9.990000000000001e-23 0.9999999999997 2.998970100000001e-13 9.998001000000001e-17 9.99e-21 0.999999999999703 2.969880309e-13 8.999000100000002e-18 9.99e-23 0.9999999970597294 2.940189605100001e-09 8.0990901e-14 9.99e-19 0.9999999970300297 2.96907039e-09 8.998101e-13 9.990000000000001e-17 0.9999999999997 2.998970100000001e-13 9.998001000000001e-17 9.99e-21 0.9999999970300297 2.96907039e-09 8.998101e-13 9.990000000000001e-17 0.9999999970000299 2.989971e-09 9.989010000000001e-12 9.99e-15 0.9999999999997 2.998970100000001e-13 9.998001000000001e-17 9.99e-21 0.9999999970300297 2.96907039e-09 8.998101e-13 9.990000000000001e-17 0.9999999970000299 2.989971e-09 9.989010000000001e-12 9.99e-15 0.9999999970300297 2.969070390000001e-09 8.998100999999999e-13 9.990000000000001e-17 0.99997059729403 2.939460678e-05 8.098190999999997e-09 9.990000000000001e-13 0.999970300297 2.960971200000001e-05 8.989109999999999e-08 9.990000000000001e-11 0.9999999970000299 2.989971e-09 9.989010000000001e-12 9.99e-15 0.999970300297 2.960971200000001e-05 8.989109999999999e-08 9.990000000000001e-11 0.9999700003000001 2.89998e-05 9.899099999999999e-07 9.99e-09 1 2.999969000100001e-25 9.998999001000006e-32 9.989999999999999e-39 1 2.969969400090001e-21 8.999099001000004e-28 9.989999999999999e-35 1 2.999960001000001e-21 9.998990010000003e-27 9.99e-33 1 2.969969400090001e-21 8.999099001000004e-28 9.989999999999999e-35 1 2.940269787081001e-17 8.099189001000001e-24 9.990000000000001e-31 1 2.969961300900001e-17 8.999090010000002e-23 9.99e-29 1 2.999960001000001e-21 9.998990010000003e-27 9.99e-33 1 2.969961300900001e-17 8.999090010000002e-23 9.99e-29 1 2.999870010000001e-17 9.998900100000002e-22 9.99e-27 1 2.999960001000001e-21 9.998990010000003e-27 9.99e-33 1 2.969961300900001e-17 8.999090010000002e-23 9.99e-29 1 2.999870010000001e-17 9.998900100000002e-22 9.99e-27 1 2.969961300900001e-17 8.999090010000001e-23 9.990000000000001e-29 0.999999999999706 2.940262497810001e-13 8.09918001e-19 9.990000000000001e-25 0.999999999999703 2.969880309000001e-13 8.9990001e-18 9.990000000000001e-23 1 2.999870010000001e-17 9.998900100000002e-22 9.99e-27 0.999999999999703 2.969880309000001e-13 8.9990001e-18 9.990000000000001e-23 0.9999999999997 2.998970100000001e-13 9.998001000000001e-17 9.99e-21 1 2.999960001000001e-21 9.998990010000003e-27 9.99e-33 1 2.969961300900001e-17 8.999090010000002e-23 9.99e-29 1 2.999870010000001e-17 9.998900100000002e-22 9.99e-27 1 2.969961300900001e-17 8.999090010000001e-23 9.990000000000001e-29 0.999999999999706 2.940262497810001e-13 8.09918001e-19 9.990000000000001e-25 0.999999999999703 2.969880309000001e-13 8.9990001e-18 9.990000000000001e-23 1 2.999870010000001e-17 9.998900100000002e-22 9.99e-27 0.999999999999703 2.969880309000001e-13 8.9990001e-18 9.990000000000001e-23 0.9999999999997 2.998970100000001e-13 9.998001000000001e-17 9.99e-21 1 2.999870010000001e-17 9.998900100000002e-22 9.99e-27 0.999999999999703 2.969880309000001e-13 8.9990001e-18 9.990000000000001e-23 0.9999999999997 2.998970100000001e-13 9.998001000000001e-17 9.99e-21 0.999999999999703 2.969880309e-13 8.999000100000002e-18 9.99e-23 0.9999999970597294 2.940189605100001e-09 8.0990901e-14 9.99e-19 0.9999999970300297 2.96907039e-09 8.998101e-13 9.990000000000001e-17 0.9999999999997 2.998970100000001e-13 9.998001000000001e-17 9.99e-21 0.9999999970300297 2.96907039e-09 8.998101e-13 9.990000000000001e-17 0.9999999970000299 2.989971e-09 9.989010000000001e-12 9.99e-15 1 2.969969400090001e-21 8.999099001000002e-28 9.989999999999999e-35 1 2.940269787081001e-17 8.099189001e-24 9.989999999999999e-31 1 2.969961300900001e-17 8.999090010000001e-23 9.989999999999999e-29 1 2.940269787081001e-17 8.099189001000001e-24 9.989999999999999e-31 0.9999999999997089 2.910867162102901e-13 7.289270000999999e-20 9.99e-27 0.999999999999706 2.940262497810001e-13 8.09918001e-19 9.989999999999999e-25 1 2.969961300900001e-17 8.999090010000001e-23 9.989999999999999e-29 0.999999999999706 2.940262497810001e-13 8.09918001e-19 9.989999999999999e-25 0.999999999999703 2.969880309000001e-13 8.9990001e-18 9.99e-23 1 2.969961300900001e-17 8.999090010000001e-23 9.989999999999999e-29 0.999999999999706 2.940262497810001e-13 8.09918001e-19 9.989999999999999e-25 0.999999999999703 2.969880309000001e-13 8.9990001e-18 9.99e-23 0.999999999999706 2.940262497810001e-13 8.09918001e-19 9.989999999999999e-25 0.9999999970891321 2.910860601759001e-09 7.289261009999999e-15 9.99e-21 0.9999999970597294 2.940189605100001e-09 8.099090099999999e-14 9.99e-19 0.999999999999703 2.969880309000001e-13 8.9990001e-18 9.99e-23 0.9999999970597294 2.940189605100001e-09 8.099090099999999e-14 9.99e-19 0.9999999970300297 2.969070390000001e-09 8.998100999999999e-13 9.990000000000001e-17 1 2.969961300900001e-17 8.999090010000001e-23 9.989999999999999e-29 0.999999999999706 2.940262497810001e-13 8.09918001e-19 9.989999999999999e-25 0.999999999999703 2.969880309000001e-13 8.9990001e-18 9.99e-23 0.999999999999706 2.940262497810001e-13 8.09918001e-19 9.989999999999999e-25 0.9999999970891321 2.910860601759001e-09 7.289261009999999e-15 9.99e-21 0.9999999970597294 2.940189605100001e-09 8.099090099999999e-14 9.99e-19 0.999999999999703 2.969880309000001e-13 8.9990001e-18 9.99e-23 0.9999999970597294 2.940189605100001e-09 8.099090099999999e-14 9.99e-19 0.9999999970300297 2.969070390000001e-09 8.998100999999999e-13 9.990000000000001e-17 0.999999999999703 2.969880309000001e-13 8.9990001e-18 9.99e-23 0.9999999970597294 2.940189605100001e-09 8.099090099999999e-14 9.99e-19 0.9999999970300297 2.969070390000001e-09 8.998100999999999e-13 9.990000000000001e-17 0.9999999970597294 2.940189605100001e-09 8.099090099999999e-14 9.99e-19 0.9999708913210897 2.910794998320001e-05 7.289171099999997e-10 9.990000000000002e-15 0.99997059729403 2.939460678e-05 8.098190999999997e-09 9.990000000000001e-13 0.9999999970300297 2.969070390000001e-09 8.998100999999999e-13 9.990000000000001e-17 0.99997059729403 2.939460678e-05 8.098190999999997e-09 9.990000000000001e-13 0.999970300297 2.960971200000001e-05 8.989109999999999e-08 9.990000000000001e-11 1 2.999960001000001e-21 9.998990010000003e-27 9.99e-33 1 2.969961300900001e-17 8.999090010000002e-23 9.99e-29 1 2.999870010000001e-17 9.998900100000002e-22 9.99e-27 1 2.969961300900001e-17 8.999090010000001e-23 9.990000000000001e-29 0.999999999999706 2.940262497810001e-13 8.09918001e-19 9.990000000000001e-25 0.999999999999703 2.969880309000001e-13 8.9990001e-18 9.990000000000001e-23 1 2.999870010000001e-17 9.998900100000002e-22 9.99e-27 0.999999999999703 2.969880309000001e-13 8.9990001e-18 9.990000000000001e-23 0.9999999999997 2.998970100000001e-13 9.998001000000001e-17 9.99e-21 1 2.999870010000001e-17 9.998900100000002e-22 9.99e-27 0.999999999999703 2.969880309000001e-13 8.9990001e-18 9.990000000000001e-23 0.9999999999997 2.998970100000001e-13 9.998001000000001e-17 9.99e-21 0.999999999999703 2.969880309e-13 8.999000100000002e-18 9.99e-23 0.9999999970597294 2.940189605100001e-09 8.0990901e-14 9.99e-19 0.9999999970300297 2.96907039e-09 8.998101e-13 9.990000000000001e-17 0.9999999999997 2.998970100000001e-13 9.998001000000001e-17 9.99e-21 0.9999999970300297 2.96907039e-09 8.998101e-13 9.990000000000001e-17 0.9999999970000299 2.989971e-09 9.989010000000001e-12 9.99e-15 1 2.999870010000001e-17 9.998900100000002e-22 9.99e-27 0.999999999999703 2.969880309000001e-13 8.9990001e-18 9.990000000000001e-23 0.9999999999997 2.998970100000001e-13 9.998001000000001e-17 9.99e-21 0.999999999999703 2.969880309e-13 8.999000100000002e-18 9.99e-23 0.9999999970597294 2.940189605100001e-09 8.0990901e-14 9.99e-19 0.9999999970300297 2.96907039e-09 8.998101e-13 9.990000000000001e-17 0.9999999999997 2.998970100000001e-13 9.998001000000001e-17 9.99e-21 0.9999999970300297 2.96907039e-09 8.998101e-13 9.990000000000001e-17 0.9999999970000299 2.989971e-09 9.989010000000001e-12 9.99e-15 0.9999999999997 2.998970100000001e-13 9.998001000000001e-17 9.99e-21 0.9999999970300297 2.96907039e-09 8.998101e-13 9.990000000000001e-17 0.9999999970000299 2.989971e-09 9.989010000000001e-12 9.99e-15 0.9999999970300297 2.969070390000001e-09 8.998100999999999e-13 9.990000000000001e-17 0.99997059729403 2.939460678e-05 8.098190999999997e-09 9.990000000000001e-13 0.999970300297 2.960971200000001e-05 8.989109999999999e-08 9.990000000000001e-11 0.9999999970000299 2.989971e-09 9.989010000000001e-12 9.99e-15 0.999970300297 2.960971200000001e-05 8.989109999999999e-08 9.990000000000001e-11 0.9999700003000001 2.89998e-05 9.899099999999999e-07 9.99e-09 1 2.999960001000001e-21 9.998990010000003e-27 9.99e-33 1 2.969961300900001e-17 8.999090010000002e-23 9.99e-29 1 2.999870010000001e-17 9.998900100000002e-22 9.99e-27 1 2.969961300900001e-17 8.999090010000001e-23 9.990000000000001e-29 0.999999999999706 2.940262497810001e-13 8.09918001e-19 9.990000000000001e-25 0.999999999999703 2.969880309000001e-13 8.9990001e-18 9.990000000000001e-23 1 2.999870010000001e-17 9.998900100000002e-22 9.99e-27 0.999999999999703 2.969880309000001e-13 8.9990001e-18 9.990000000000001e-23 0.9999999999997 2.998970100000001e-13 9.998001000000001e-17 9.99e-21 1 2.999870010000001e-17 9.998900100000002e-22 9.99e-27 0.999999999999703 2.969880309000001e-13 8.9990001e-18 9.990000000000001e-23 0.9999999999997 2.998970100000001e-13 9.998001000000001e-17 9.99e-21 0.999999999999703 2.969880309e-13 8.999000100000002e-18 9.99e-23 0.9999999970597294 2.940189605100001e-09 8.0990901e-14 9.99e-19 0.9999999970300297 2.96907039e-09 8.998101e-13 9.990000000000001e-17 0.9999999999997 2.998970100000001e-13 9.998001000000001e-17 9.99e-21 0.9999999970300297 2.96907039e-09 8.998101e-13 9.990000000000001e-17 0.9999999970000299 2.989971e-09 9.989010000000001e-12 9.99e-15 1 2.999870010000001e-17 9.998900100000002e-22 9.99e-27 0.999999999999703 2.969880309000001e-13 8.9990001e-18 9.990000000000001e-23 0.9999999999997 2.998970100000001e-13 9.998001000000001e-17 9.99e-21 0.999999999999703 2.969880309e-13 8.999000100000002e-18 9.99e-23 0.9999999970597294 2.940189605100001e-09 8.0990901e-14 9.99e-19 0.9999999970300297 2.96907039e-09 8.998101e-13 9.990000000000001e-17 0.9999999999997 2.998970100000001e-13 9.998001000000001e-17 9.99e-21 0.9999999970300297 2.96907039e-09 8.998101e-13 9.990000000000001e-17 0.9999999970000299 2.989971e-09 9.989010000000001e-12 9.99e-15 0.9999999999997 2.998970100000001e-13 9.998001000000001e-17 9.99e-21 0.9999999970300297 2.96907039e-09 8.998101e-13 9.990000000000001e-17 0.9999999970000299 2.989971e-09 9.989010000000001e-12 9.99e-15 0.9999999970300297 2.969070390000001e-09 8.998100999999999e-13 9.990000000000001e-17 0.99997059729403 2.939460678e-05 8.098190999999997e-09 9.990000000000001e-13 0.999970300297 2.960971200000001e-05 8.989109999999999e-08 9.990000000000001e-11 0.9999999970000299 2.989971e-09 9.989010000000001e-12 9.99e-15 0.999970300297 2.960971200000001e-05 8.989109999999999e-08 9.990000000000001e-11 0.9999700003000001 2.89998e-05 9.899099999999999e-07 9.99e-09 1 2.9699613009e-17 8.999090010000002e-23 9.989999999999998e-29 0.999999999999706 2.94026249781e-13 8.099180010000001e-19 9.989999999999999e-25 0.999999999999703 2.969880309e-13 8.999000100000002e-18 9.989999999999999e-23 0.999999999999706 2.940262497810001e-13 8.099180010000001e-19 9.989999999999999e-25 0.9999999970891321 2.910860601759001e-09 7.28926101e-15 9.99e-21 0.9999999970597294 2.940189605100001e-09 8.0990901e-14 9.99e-19 0.999999999999703 2.969880309e-13 8.999000100000002e-18 9.989999999999999e-23 0.9999999970597294 2.940189605100001e-09 8.0990901e-14 9.99e-19 0.9999999970300297 2.96907039e-09 8.998101e-13 9.989999999999999e-17 0.999999999999703 2.969880309e-13 8.999000100000002e-18 9.989999999999999e-23 0.9999999970597294 2.940189605100001e-09 8.0990901e-14 9.99e-19 0.9999999970300297 2.96907039e-09 8.998101e-13 9.989999999999999e-17 0.9999999970597294 2.940189605100001e-09 8.0990901e-14 9.99e-19 0.9999708913210897 2.91079499832e-05 7.289171099999998e-10 9.990000000000002e-15 0.99997059729403 2.939460678e-05 8.098190999999999e-09 9.990000000000001e-13 0.9999999970300297 2.96907039e-09 8.998101e-13 9.989999999999999e-17 0.99997059729403 2.939460678e-05 8.098190999999999e-09 9.990000000000001e-13 0.999970300297 2.9609712e-05 8.98911e-08 9.99e-11 0.999999999999703 2.969880309e-13 8.999000100000002e-18 9.989999999999999e-23 0.9999999970597294 2.940189605100001e-09 8.0990901e-14 9.99e-19 0.9999999970300297 2.96907039e-09 8.998101e-13 9.989999999999999e-17 0.9999999970597294 2.940189605100001e-09 8.0990901e-14 9.99e-19 0.9999708913210897 2.91079499832e-05 7.289171099999998e-10 9.990000000000002e-15 0.99997059729403 2.939460678e-05 8.098190999999999e-09 9.990000000000001e-13 0.9999999970300297 2.96907039e-09 8.998101e-13 9.989999999999999e-17 0.99997059729403 2.939460678e-05 8.098190999999999e-09 9.990000000000001e-13 0.999970300297 2.9609712e-05 8.98911e-08 9.99e-11 0.9999999970300297 2.96907039e-09 8.998101e-13 9.989999999999999e-17 0.99997059729403 2.939460678e-05 8.098190999999999e-09 9.990000000000001e-13 0.999970300297 2.9609712e-05 8.98911e-08 9.99e-11 0.99997059729403 2.939460678e-05 8.098190999999999e-09 9.990000000000001e-13 0.708913210897 0.291013896393 7.288271999999999e-05 9.99e-09 0.7059729403 0.2932171407 0.0008089199999999999 9.990000000000001e-07 0.999970300297 2.9609712e-05 8.98911e-08 9.99e-11 0.7059729403 0.2932171407 0.0008089199999999999 9.990000000000001e-07 0.70300297 0.28799793 0.008899199999999999 9.99e-05 1 2.999870010000001e-17 9.998900100000002e-22 9.99e-27 0.999999999999703 2.969880309000001e-13 8.9990001e-18 9.990000000000001e-23 0.9999999999997 2.998970100000001e-13 9.998001000000001e-17 9.99e-21 0.999999999999703 2.969880309e-13 8.999000100000002e-18 9.99e-23 0.9999999970597294 2.940189605100001e-09 8.0990901e-14 9.99e-19 0.9999999970300297 2.96907039e-09 8.998101e-13 9.990000000000001e-17 0.9999999999997 2.998970100000001e-13 9.998001000000001e-17 9.99e-21 0.9999999970300297 2.96907039e-09 8.998101e-13 9.990000000000001e-17 0.9999999970000299 2.989971e-09 9.989010000000001e-12 9.99e-15 0.9999999999997 2.998970100000001e-13 9.998001000000001e-17 9.99e-21 0.9999999970300297 2.96907039e-09 8.998101e-13 9.990000000000001e-17 0.9999999970000299 2.989971e-09 9.989010000000001e-12 9.99e-15 0.9999999970300297 2.969070390000001e-09 8.998100999999999e-13 9.990000000000001e-17 0.99997059729403 2.939460678e-05 8.098190999999997e-09 9.990000000000001e-13 0.999970300297 2.960971200000001e-05 8.989109999999999e-08 9.990000000000001e-11 0.9999999970000299 2.989971e-09 9.989010000000001e-12 9.99e-15 0.999970300297 2.960971200000001e-05 8.989109999999999e-08 9.990000000000001e-11 0.9999700003000001 2.89998e-05 9.899099999999999e-07 9.99e-09 0.9999999999997 2.998970100000001e-13 9.998001000000001e-17 9.99e-21 0.9999999970300297 2.96907039e-09 8.998101e-13 9.990000000000001e-17 0.9999999970000299 2.989971e-09 9.989010000000001e-12 9.99e-15 0.9999999970300297 2.969070390000001e-09 8.998100999999999e-13 9.990000000000001e-17 0.99997059729403 2.939460678e-05 8.098190999999997e-09 9.990000000000001e-13 0.999970300297 2.960971200000001e-05 8.989109999999999e-08 9.990000000000001e-11 0.9999999970000299 2.989971e-09 9.989010000000001e-12 9.99e-15 0.999970300297 2.960971200000001e-05 8.989109999999999e-08 9.990000000000001e-11 0.9999700003000001 2.89998e-05 9.899099999999999e-07 9.99e-09 0.9999999970000299 2.989971e-09 9.989010000000001e-12 9.99e-15 0.999970300297 2.960971200000001e-05 8.989109999999999e-08 9.990000000000001e-11 0.9999700003000001 2.89998e-05 9.899099999999999e-07 9.99e-09 0.999970300297 2.9609712e-05 8.98911e-08 9.99e-11 0.7059729403 0.2932171407 0.0008089199999999999 9.990000000000001e-07 0.70300297 0.28799793 0.008899199999999999 9.99e-05 0.9999700003000001 2.89998e-05 9.899099999999999e-07 9.99e-09 0.70300297 0.28799793 0.008899199999999999 9.99e-05 0.7000029999999999 0.200007 0.09 0.009990000000000001 1 9.999899000100004e-29 9.998999001000005e-36 9.989999999999997e-43 1 9.899900100090003e-25 8.999099001000003e-32 9.989999999999996e-39 1 9.999890001000003e-25 9.998990010000003e-31 9.989999999999997e-37 1 9.899900100090003e-25 8.999099001000002e-32 9.989999999999996e-39 1 9.800901180081003e-21 8.099189001000001e-28 9.989999999999997e-35 1 9.899892000900003e-21 8.999090010000001e-27 9.989999999999997e-33 1 9.999890001000003e-25 9.998990010000003e-31 9.989999999999997e-37 1 9.899892000900003e-21 8.999090010000001e-27 9.989999999999997e-33 1 9.999800010000003e-21 9.998900100000002e-26 9.989999999999997e-31 1 9.999890001000003e-25 9.998990010000003e-31 9.989999999999997e-37 1 9.899892000900003e-21 8.999090010000001e-27 9.989999999999997e-33 1 9.999800010000003e-21 9.998900100000002e-26 9.989999999999997e-31 1 9.899892000900003e-21 8.999090010000001e-27 9.989999999999997e-33 0.9999999999999999 9.800893890810002e-17 8.09918001e-23 9.989999999999998e-29 0.9999999999999999 9.899811009000002e-17 8.9990001e-22 9.989999999999997e-27 1 9.999800010000003e-21 9.998900100000002e-26 9.989999999999997e-31 0.9999999999999999 9.899811009000002e-17 8.9990001e-22 9.989999999999997e-27 0.9999999999999999 9.998900100000003e-17 9.998001000000001e-21 9.989999999999997e-25 1 9.999890001000003e-25 9.998990010000003e-31 9.989999999999997e-37 1 9.899892000900003e-21 8.999090010000001e-27 9.989999999999997e-33 1 9.999800010000003e-21 9.998900100000002e-26 9.989999999999997e-31 1 9.899892000900003e-21 8.999090010000001e-27 9.989999999999997e-33 0.9999999999999999 9.800893890810002e-17 8.09918001e-23 9.989999999999998e-29 0.9999999999999999 9.899811009000002e-17 8.9990001e-22 9.989999999999997e-27 1 9.999800010000003e-21 9.998900100000002e-26 9.989999999999997e-31 0.9999999999999999 9.899811009000002e-17 8.9990001e-22 9.989999999999997e-27 0.9999999999999999 9.998900100000003e-17 9.998001000000001e-21 9.989999999999997e-25 1 9.999800010000003e-21 9.998900100000002e-26 9.989999999999997e-31 0.9999999999999999 9.899811009000002e-17 8.9990001e-22 9.989999999999997e-27 0.9999999999999999 9.998900100000003e-17 9.998001000000001e-21 9.989999999999997e-25 0.9999999999999999 9.899811009000002e-17 8.999000100000002e-22 9.989999999999999e-27 0.9999999999990199 9.800820998100001e-13 8.099090100000001e-18 9.989999999999999e-23 0.99999999999901 9.899001090000002e-13 8.998101000000001e-17 9.989999999999999e-21 0.9999999999999999 9.998900100000003e-17 9.998001000000001e-21 9.989999999999997e-25 0.99999999999901 9.899001090000002e-13 8.998101000000001e-17 9.989999999999999e-21 0.999999999999 9.989901000000002e-13 9.989010000000001e-16 9.989999999999998e-19 1 9.899900100090003e-25 8.999099001000003e-32 9.989999999999998e-39 1 9.800901180081003e-21 8.099189001000002e-28 9.989999999999999e-35 1 9.899892000900003e-21 8.999090010000002e-27 9.989999999999999e-33 1 9.800901180081003e-21 8.099189001000004e-28 9.989999999999999e-35 0.9999999999999999 9.702892241172902e-17 7.289270001000002e-24 9.989999999999999e-31 0.9999999999999999 9.800893890810002e-17 8.099180010000002e-23 9.989999999999999e-29 1 9.899892000900003e-21 8.999090010000002e-27 9.989999999999999e-33 0.9999999999999999 9.800893890810002e-17 8.099180010000002e-23 9.989999999999999e-29 0.9999999999999999 9.899811009000002e-17 8.999000100000002e-22 9.989999999999999e-27 1 9.899892000900003e-21 8.999090010000002e-27 9.989999999999999e-33 0.9999999999999999 9.800893890810002e-17 8.099180010000002e-23 9.989999999999999e-29 0.9999999999999999 9.899811009000002e-17 8.999000100000002e-22 9.989999999999999e-27 0.9999999999999999 9.800893890810001e-17 8.099180010000001e-23 9.989999999999998e-29 0.9999999999990297 9.702885680829001e-13 7.289261010000001e-19 9.989999999999999e-25 0.9999999999990199 9.800820998100001e-13 8.099090100000001e-18 9.989999999999999e-23 0.9999999999999999 9.899811009000002e-17 8.999000100000002e-22 9.989999999999999e-27 0.9999999999990199 9.800820998100001e-13 8.099090100000001e-18 9.989999999999999e-23 0.99999999999901 9.899001090000002e-13 8.998101000000001e-17 9.989999999999999e-21 1 9.899892000900003e-21 8.999090010000002e-27 9.989999999999999e-33 0.9999999999999999 9.800893890810002e-17 8.099180010000002e-23 9.989999999999999e-29 0.9999999999999999 9.899811009000002e-17 8.999000100000002e-22 9.989999999999999e-27 0.9999999999999999 9.800893890810001e-17 8.099180010000001e-23 9.989999999999998e-29 0.9999999999990297 9.702885680829001e-13 7.289261010000001e-19 9.989999999999999e-25 0.9999999999990199 9.800820998100001e-13 8.099090100000001e-18 9.989999999999999e-23 0.9999999999999999 9.899811009000002e-17 8.999000100000002e-22 9.989999999999999e-27 0.9999999999990199 9.800820998100001e-13 8.099090100000001e-18 9.989999999999999e-23 0.99999999999901 9.899001090000002e-13 8.998101000000001e-17 9.989999999999999e-21 0.9999999999999999 9.899811009000002e-17 8.999000100000002e-22 9.989999999999999e-27 0.9999999999990199 9.800820998100001e-13 8.099090100000001e-18 9.989999999999999e-23 0.99999999999901 9.899001090000002e-13 8.998101000000001e-17 9.989999999999999e-21 0.9999999999990199 9.800820998100003e-13 8.099090100000001e-18 9.989999999999999e-23 0.9999999902971071 9.702820077390002e-09 7.289171099999999e-14 9.99e-19 0.999999990199098 9.800092071000002e-09 8.098191e-13 9.989999999999999e-17 0.99999999999901 9.899001090000002e-13 8.998101000000001e-17 9.989999999999999e-21 0.999999990199098 9.800092071000002e-09 8.098191e-13 9.989999999999999e-17 0.999999990100099 9.890901900000001e-09 8.989110000000001e-12 9.989999999999999e-15 1 9.999890001000003e-25 9.998990010000003e-31 9.989999999999997e-37 1 9.899892000900003e-21 8.999090010000001e-27 9.989999999999997e-33 1 9.999800010000003e-21 9.998900100000002e-26 9.989999999999997e-31 1 9.899892000900003e-21 8.999090010000001e-27 9.989999999999997e-33 0.9999999999999999 9.800893890810002e-17 8.09918001e-23 9.989999999999998e-29 0.9999999999999999 9.899811009000002e-17 8.9990001e-22 9.989999999999997e-27 1 9.999800010000003e-21 9.998900100000002e-26 9.989999999999997e-31 0.9999999999999999 9.899811009000002e-17 8.9990001e-22 9.989999999999997e-27 0.9999999999999999 9.998900100000003e-17 9.998001000000001e-21 9.989999999999997e-25 1 9.999800010000003e-21 9.998900100000002e-26 9.989999999999997e-31 0.9999999999999999 9.899811009000002e-17 8.9990001e-22 9.989999999999997e-27 0.9999999999999999 9.998900100000003e-17 9.998001000000001e-21 9.989999999999997e-25 0.9999999999999999 9.899811009000002e-17 8.999000100000002e-22 9.989999999999999e-27 0.9999999999990199 9.800820998100001e-13 8.099090100000001e-18 9.989999999999999e-23 0.99999999999901 9.899001090000002e-13 8.998101000000001e-17 9.989999999999999e-21 0.9999999999999999 9.998900100000003e-17 9.998001000000001e-21 9.989999999999997e-25 0.99999999999901 9.899001090000002e-13 8.998101000000001e-17 9.989999999999999e-21 0.999999999999 9.989901000000002e-13 9.989010000000001e-16 9.989999999999998e-19 1 9.999800010000003e-21 9.998900100000002e-26 9.989999999999997e-31 0.9999999999999999 9.899811009000002e-17 8.9990001e-22 9.989999999999997e-27 0.9999999999999999 9.998900100000003e-17 9.998001000000001e-21 9.989999999999997e-25 0.9999999999999999 9.899811009000002e-17 8.999000100000002e-22 9.989999999999999e-27 0.9999999999990199 9.800820998100001e-13 8.099090100000001e-18 9.989999999999999e-23 0.99999999999901 9.899001090000002e-13 8.998101000000001e-17 9.989999999999999e-21 0.9999999999999999 9.998900100000003e-17 9.998001000000001e-21 9.989999999999997e-25 0.99999999999901 9.899001090000002e-13 8.998101000000001e-17 9.989999999999999e-21 0.999999999999 9.989901000000002e-13 9.989010000000001e-16 9.989999999999998e-19 0.9999999999999999 9.998900100000003e-17 9.998001000000001e-21 9.989999999999997e-25 0.99999999999901 9.899001090000002e-13 8.998101000000001e-17 9.989999999999999e-21 0.999999999999 9.989901000000002e-13 9.989010000000001e-16 9.989999999999998e-19 0.99999999999901 9.899001090000002e-13 8.998101000000001e-17 9.989999999999999e-21 0.999999990199098 9.800092071000002e-09 8.098191e-13 9.989999999999999e-17 0.999999990100099 9.890901900000001e-09 8.989110000000001e-12 9.989999999999999e-15 0.999999999999 9.989901000000002e-13 9.989010000000001e-16 9.989999999999998e-19 0.999999990100099 9.890901900000001e-09 8.989110000000001e-12 9.989999999999999e-15 0.9999999900001 9.899910000000002e-09 9.899100000000001e-11 9.989999999999999e-13 1 9.999890001000003e-25 9.998990010000003e-31 9.989999999999997e-37 1 9.899892000900003e-21 8.999090010000001e-27 9.989999999999997e-33 1 9.999800010000003e-21 9.998900100000002e-26 9.989999999999997e-31 1 9.899892000900003e-21 8.999090010000001e-27 9.989999999999997e-33 0.9999999999999999 9.800893890810002e-17 8.09918001e-23 9.989999999999998e-29 0.9999999999999999 9.899811009000002e-17 8.9990001e-22 9.989999999999997e-27 1 9.999800010000003e-21 9.998900100000002e-26 9.989999999999997e-31 0.9999999999999999 9.899811009000002e-17 8.9990001e-22 9.989999999999997e-27 0.9999999999999999 9.998900100000003e-17 9.998001000000001e-21 9.989999999999997e-25 1 9.999800010000003e-21 9.998900100000002e-26 9.989999999999997e-31 0.9999999999999999 9.899811009000002e-17 8.9990001e-22 9.989999999999997e-27 0.9999999999999999 9.998900100000003e-17 9.998001000000001e-21 9.989999999999997e-25 0.9999999999999999 9.899811009000002e-17 8.999000100000002e-22 9.989999999999999e-27 0.9999999999990199 9.800820998100001e-13 8.099090100000001e-18 9.989999999999999e-23 0.99999999999901 9.899001090000002e-13 8.998101000000001e-17 9.989999999999999e-21 0.9999999999999999 9.998900100000003e-17 9.998001000000001e-21 9.989999999999997e-25 0.99999999999901 9.899001090000002e-13 8.998101000000001e-17 9.989999999999999e-21 0.999999999999 9.989901000000002e-13 9.989010000000001e-16 9.989999999999998e-19 1 9.999800010000003e-21 9.998900100000002e-26 9.989999999999997e-31 0.9999999999999999 9.899811009000002e-17 8.9990001e-22 9.989999999999997e-27 0.9999999999999999 9.998900100000003e-17 9.998001000000001e-21 9.989999999999997e-25 0.9999999999999999 9.899811009000002e-17 8.999000100000002e-22 9.989999999999999e-27 0.9999999999990199 9.800820998100001e-13 8.099090100000001e-18 9.989999999999999e-23 0.99999999999901 9.899001090000002e-13 8.998101000000001e-17 9.989999999999999e-21 0.9999999999999999 9.998900100000003e-17 9.998001000000001e-21 9.989999999999997e-25 0.99999999999901 9.899001090000002e-13 8.998101000000001e-17 9.989999999999999e-21 0.999999999999 9.989901000000002e-13 9.989010000000001e-16 9.989999999999998e-19 0.9999999999999999 9.998900100000003e-17 9.998001000000001e-21 9.989999999999997e-25 0.99999999999901 9.899001090000002e-13 8.998101000000001e-17 9.989999999999999e-21 0.999999999999 9.989901000000002e-13 9.989010000000001e-16 9.989999999999998e-19 0.99999999999901 9.899001090000002e-13 8.998101000000001e-17 9.989999999999999e-21 0.999999990199098 9.800092071000002e-09 8.098191e-13 9.989999999999999e-17 0.999999990100099 9.890901900000001e-09 8.989110000000001e-12 9.989999999999999e-15 0.999999999999 9.989901000000002e-13 9.989010000000001e-16 9.989999999999998e-19 0.999999990100099 9.890901900000001e-09 8.989110000000001e-12 9.989999999999999e-15 0.9999999900001 9.899910000000002e-09 9.899100000000001e-11 9.989999999999999e-13 1 9.899892000900003e-21 8.999090010000002e-27 9.989999999999999e-33 0.9999999999999999 9.800893890810002e-17 8.099180010000002e-23 9.989999999999999e-29 0.9999999999999999 9.899811009000002e-17 8.999000100000002e-22 9.989999999999999e-27 0.9999999999999999 9.800893890810001e-17 8.099180010000001e-23 9.989999999999998e-29 0.9999999999990297 9.702885680829001e-13 7.289261010000001e-19 9.989999999999999e-25 0.9999999999990199 9.800820998100001e-13 8.099090100000001e-18 9.989999999999999e-23 0.9999999999999999 9.899811009000002e-17 8.999000100000002e-22 9.989999999999999e-27 0.9999999999990199 9.800820998100001e-13 8.099090100000001e-18 9.989999999999999e-23 0.99999999999901 9.899001090000002e-13 8.998101000000001e-17 9.989999999999999e-21 0.9999999999999999 9.899811009000002e-17 8.999000100000002e-22 9.989999999999999e-27 0.9999999999990199 9.800820998100001e-13 8.099090100000001e-18 9.989999999999999e-23 0.99999999999901 9.899001090000002e-13 8.998101000000001e-17 9.989999999999999e-21 0.9999999999990199 9.800820998100003e-13 8.099090100000001e-18 9.989999999999999e-23 0.9999999902971071 9.702820077390002e-09 7.289171099999999e-14 9.99e-19 0.999999990199098 9.800092071000002e-09 8.098191e-13 9.989999999999999e-17 0.99999999999901 9.899001090000002e-13 8.998101000000001e-17 9.989999999999999e-21 0.999999990199098 9.800092071000002e-09 8.098191e-13 9.989999999999999e-17 0.999999990100099 9.890901900000001e-09 8.989110000000001e-12 9.989999999999999e-15 0.9999999999999999 9.899811009000002e-17 8.999000100000002e-22 9.989999999999999e-27 0.9999999999990199 9.800820998100001e-13 8.099090100000001e-18 9.989999999999999e-23 0.99999999999901 9.899001090000002e-13 8.998101000000001e-17 9.989999999999999e-21 0.9999999999990199 9.800820998100003e-13 8.099090100000001e-18 9.989999999999999e-23 0.9999999902971071 9.702820077390002e-09 7.289171099999999e-14 9.99e-19 0.999999990199098 9.800092071000002e-09 8.098191e-13 9.989999999999999e-17 0.99999999999901 9.899001090000002e-13 8.998101000000001e-17 9.989999999999999e-21 0.999999990199098 9.800092071000002e-09 8.098191e-13 9.989999999999999e-17 0.999999990100099 9.890901900000001e-09 8.989110000000001e-12 9.989999999999999e-15 0.99999999999901 9.899001090000002e-13 8.998101000000001e-17 9.989999999999999e-21 0.999999990199098 9.800092071000002e-09 8.098191e-13 9.989999999999999e-17 0.999999990100099 9.890901900000001e-09 8.989110000000001e-12 9.989999999999999e-15 0.999999990199098 9.800092071e-09 8.098191000000001e-13 9.989999999999998e-17 0.999902971070299 9.702164043e-05 7.288272e-09 9.989999999999999e-13 0.9999019909801 9.7928028e-05 8.089199999999999e-08 9.989999999999999e-11 0.999999990100099 9.890901900000001e-09 8.989110000000001e-12 9.989999999999999e-15 0.9999019909801 9.7928028e-05 8.089199999999999e-08 9.989999999999999e-11 0.99990100099 9.80991e-05 8.899200000000001e-07 9.989999999999999e-09 1 9.999800010000003e-21 9.998900100000002e-26 9.989999999999997e-31 0.9999999999999999 9.899811009000002e-17 8.9990001e-22 9.989999999999997e-27 0.9999999999999999 9.998900100000003e-17 9.998001000000001e-21 9.989999999999997e-25 0.9999999999999999 9.899811009000002e-17 8.999000100000002e-22 9.989999999999999e-27 0.9999999999990199 9.800820998100001e-13 8.099090100000001e-18 9.989999999999999e-23 0.99999999999901 9.899001090000002e-13 8.998101000000001e-17 9.989999999999999e-21 0.9999999999999999 9.998900100000003e-17 9.998001000000001e-21 9.989999999999997e-25 0.99999999999901 9.899001090000002e-13 8.998101000000001e-17 9.989999999999999e-21 0.999999999999 9.989901000000002e-13 9.989010000000001e-16 9.989999999999998e-19 0.9999999999999999 9.998900100000003e-17 9.998001000000001e-21 9.989999999999997e-25 0.99999999999901 9.899001090000002e-13 8.998101000000001e-17 9.989999999999999e-21 0.999999999999 9.989901000000002e-13 9.989010000000001e-16 9.989999999999998e-19 0.99999999999901 9.899001090000002e-13 8.998101000000001e-17 9.989999999999999e-21 0.999999990199098 9.800092071000002e-09 8.098191e-13 9.989999999999999e-17 0.999999990100099 9.890901900000001e-09 8.989110000000001e-12 9.989999999999999e-15 0.999999999999 9.989901000000002e-13 9.989010000000001e-16 9.989999999999998e-19 0.999999990100099 9.890901900000001e-09 8.989110000000001e-12 9.989999999999999e-15 0.9999999900001 9.899910000000002e-09 9.899100000000001e-11 9.989999999999999e-13 0.9999999999999999 9.998900100000003e-17 9.998001000000001e-21 9.989999999999997e-25 0.99999999999901 9.899001090000002e-13 8.998101000000001e-17 9.989999999999999e-21 0.999999999999 9.989901000000002e-13 9.989010000000001e-16 9.989999999999998e-19 0.99999999999901 9.899001090000002e-13 8.998101000000001e-17 9.989999999999999e-21 0.999999990199098 9.800092071000002e-09 8.098191e-13 9.989999999999999e-17 0.999999990100099 9.890901900000001e-09 8.989110000000001e-12 9.989999999999999e-15 0.999999999999 9.989901000000002e-13 9.989010000000001e-16 9.989999999999998e-19 0.999999990100099 9.890901900000001e-09 8.989110000000001e-12 9.989999999999999e-15 0.9999999900001 9.899910000000002e-09 9.899100000000001e-11 9.989999999999999e-13 0.999999999999 9.989901000000002e-13 9.989010000000001e-16 9.989999999999998e-19 0.999999990100099 9.890901900000001e-09 8.989110000000001e-12 9.989999999999999e-15 0.9999999900001 9.899910000000002e-09 9.899100000000001e-11 9.989999999999999e-13 0.999999990100099 9.890901900000001e-09 8.989110000000001e-12 9.989999999999999e-15 0.9999019909801 9.7928028e-05 8.089199999999999e-08 9.989999999999999e-11 0.99990100099 9.80991e-05 8.899200000000001e-07 9.989999999999999e-09 0.9999999900001 9.899910000000002e-09 9.899100000000001e-11 9.989999999999999e-13 0.99990100099 9.80991e-05 8.899200000000001e-07 9.989999999999999e-09 0.999900001 9.000000000000001e-05 9e-06 9.989999999999999e-07 1 9.999890001000003e-25 9.998990010000003e-31 9.989999999999997e-37 1 9.899892000900003e-21 8.999090010000001e-27 9.989999999999997e-33 1 9.999800010000003e-21 9.998900100000002e-26 9.989999999999997e-31 1 9.899892000900003e-21 8.999090010000001e-27 9.989999999999997e-33 0.9999999999999999 9.800893890810002e-17 8.09918001e-23 9.989999999999998e-29 0.9999999999999999 9.899811009000002e-17 8.9990001e-22 9.989999999999997e-27 1 9.999800010000003e-21 9.998900100000002e-26 9.989999999999997e-31 0.9999999999999999 9.899811009000002e-17 8.9990001e-22 9.989999999999997e-27 0.9999999999999999 9.998900100000003e-17 9.998001000000001e-21 9.989999999999997e-25 1 9.999800010000003e-21 9.998900100000002e-26 9.989999999999997e-31 0.9999999999999999 9.899811009000002e-17 8.9990001e-22 9.989999999999997e-27 0.9999999999999999 9.998900100000003e-17 9.998001000000001e-21 9.989999999999997e-25 0.9999999999999999 9.899811009000002e-17 8.999000100000002e-22 9.989999999999999e-27 0.9999999999990199 9.800820998100001e-13 8.099090100000001e-18 9.989999999999999e-23 0.99999999999901 9.899001090000002e-13 8.998101000000001e-17 9.989999999999999e-21 0.9999999999999999 9.998900100000003e-17 9.998001000000001e-21 9.989999999999997e-25 0.99999999999901 9.899001090000002e-13 8.998101000000001e-17 9.989999999999999e-21 0.999999999999 9.989901000000002e-13 9.989010000000001e-16 9.989999999999998e-19 1 9.999800010000003e-21 9.998900100000002e-26 9.989999999999997e-31 0.9999999999999999 9.899811009000002e-17 8.9990001e-22 9.989999999999997e-27 0.9999999999999999 9.998900100000003e-17 9.998001000000001e-21 9.989999999999997e-25 0.9999999999999999 9.899811009000002e-17 8.999000100000002e-22 9.989999999999999e-27 0.9999999999990199 9.800820998100001e-13 8.099090100000001e-18 9.989999999999999e-23 0.99999999999901 9.899001090000002e-13 8.998101000000001e-17 9.989999999999999e-21 0.9999999999999999 9.998900100000003e-17 9.998001000000001e-21 9.989999999999997e-25 0.99999999999901 9.899001090000002e-13 8.998101000000001e-17 9.989999999999999e-21 0.999999999999 9.989901000000002e-13 9.989010000000001e-16 9.989999999999998e-19 0.9999999999999999 9.998900100000003e-17 9.998001000000001e-21 9.989999999999997e-25 0.99999999999901 9.899001090000002e-13 8.998101000000001e-17 9.989999999999999e-21 0.999999999999 9.989901000000002e-13 9.989010000000001e-16 9.989999999999998e-19 0.99999999999901 9.899001090000002e-13 8.998101000000001e-17 9.989999999999999e-21 0.999999990199098 9.800092071000002e-09 8.098191e-13 9.989999999999999e-17 0.999999990100099 9.890901900000001e-09 8.989110000000001e-12 9.989999999999999e-15 0.999999999999 9.989901000000002e-13 9.989010000000001e-16 9.989999999999998e-19 0.999999990100099 9.890901900000001e-09 8.989110000000001e-12 9.989999999999999e-15 0.9999999900001 9.899910000000002e-09 9.899100000000001e-11 9.989999999999999e-13 1 9.899892000900003e-21 8.999090010000002e-27 9.989999999999999e-33 0.9999999999999999 9.800893890810002e-17 8.099180010000002e-23 9.989999999999999e-29 0.9999999999999999 9.899811009000002e-17 8.999000100000002e-22 9.989999999999999e-27 0.9999999999999999 9.800893890810001e-17 8.099180010000001e-23 9.989999999999998e-29 0.9999999999990297 9.702885680829001e-13 7.289261010000001e-19 9.989999999999999e-25 0.9999999999990199 9.800820998100001e-13 8.099090100000001e-18 9.989999999999999e-23 0.9999999999999999 9.899811009000002e-17 8.999000100000002e-22 9.989999999999999e-27 0.9999999999990199 9.800820998100001e-13 8.099090100000001e-18 9.989999999999999e-23 0.99999999999901 9.899001090000002e-13 8.998101000000001e-17 9.989999999999999e-21 0.9999999999999999 9.899811009000002e-17 8.999000100000002e-22 9.989999999999999e-27 0.9999999999990199 9.800820998100001e-13 8.099090100000001e-18 9.989999999999999e-23 0.99999999999901 9.899001090000002e-13 8.998101000000001e-17 9.989999999999999e-21 0.9999999999990199 9.800820998100003e-13 8.099090100000001e-18 9.989999999999999e-23 0.9999999902971071 9.702820077390002e-09 7.289171099999999e-14 9.99e-19 0.999999990199098 9.800092071000002e-09 8.098191e-13 9.989999999999999e-17 0.99999999999901 9.899001090000002e-13 8.998101000000001e-17 9.989999999999999e-21 0.999999990199098 9.800092071000002e-09 8.098191e-13 9.989999999999999e-17 0.999999990100099 9.890901900000001e-09 8.989110000000001e-12 9.989999999999999e-15 0.9999999999999999 9.899811009000002e-17 8.999000100000002e-22 9.989999999999999e-27 0.9999999999990199 9.800820998100001e-13 8.099090100000001e-18 9.989999999999999e-23 0.99999999999901 9.899001090000002e-13 8.998101000000001e-17 9.989999999999999e-21 0.9999999999990199 9.800820998100003e-13 8.099090100000001e-18 9.989999999999999e-23 0.9999999902971071 9.702820077390002e-09 7.289171099999999e-14 9.99e-19 0.999999990199098 9.800092071000002e-09 8.098191e-13 9.989999999999999e-17 0.99999999999901 9.899001090000002e-13 8.998101000000001e-17 9.989999999999999e-21 0.999999990199098 9.800092071000002e-09 8.098191e-13 9.989999999999999e-17 0.999999990100099 9.890901900000001e-09 8.989110000000001e-12 9.989999999999999e-15 0.99999999999901 9.899001090000002e-13 8.998101000000001e-17 9.989999999999999e-21 0.999999990199098 9.800092071000002e-09 8.098191e-13 9.989999999999999e-17 0.999999990100099 9.890901900000001e-09 8.989110000000001e-12 9.989999999999999e-15 0.999999990199098 9.800092071e-09 8.098191000000001e-13 9.989999999999998e-17 0.999902971070299 9.702164043e-05 7.288272e-09 9.989999999999999e-13 0.9999019909801 9.7928028e-05 8.089199999999999e-08 9.989999999999999e-11 0.999999990100099 9.890901900000001e-09 8.989110000000001e-12 9.989999999999999e-15 0.9999019909801 9.7928028e-05 8.089199999999999e-08 9.989999999999999e-11 0.99990100099 9.80991e-05 8.899200000000001e-07 9.989999999999999e-09 1 9.999800010000003e-21 9.998900100000002e-26 9.989999999999997e-31 0.9999999999999999 9.899811009000002e-17 8.9990001e-22 9.989999999999997e-27 0.9999999999999999 9.998900100000003e-17 9.998001000000001e-21 9.989999999999997e-25 0.9999999999999999 9.899811009000002e-17 8.999000100000002e-22 9.989999999999999e-27 0.9999999999990199 9.800820998100001e-13 8.099090100000001e-18 9.989999999999999e-23 0.99999999999901 9.899001090000002e-13 8.998101000000001e-17 9.989999999999999e-21 0.9999999999999999 9.998900100000003e-17 9.998001000000001e-21 9.989999999999997e-25 0.99999999999901 9.899001090000002e-13 8.998101000000001e-17 9.989999999999999e-21 0.999999999999 9.989901000000002e-13 9.989010000000001e-16 9.989999999999998e-19 0.9999999999999999 9.998900100000003e-17 9.998001000000001e-21 9.989999999999997e-25 0.99999999999901 9.899001090000002e-13 8.998101000000001e-17 9.989999999999999e-21 0.999999999999 9.989901000000002e-13 9.989010000000001e-16 9.989999999999998e-19 0.99999999999901 9.899001090000002e-13 8.998101000000001e-17 9.989999999999999e-21 0.999999990199098 9.800092071000002e-09 8.098191e-13 9.989999999999999e-17 0.999999990100099 9.890901900000001e-09 8.989110000000001e-12 9.989999999999999e-15 0.999999999999 9.989901000000002e-13 9.989010000000001e-16 9.989999999999998e-19 0.999999990100099 9.890901900000001e-09 8.989110000000001e-12 9.989999999999999e-15 0.9999999900001 9.899910000000002e-09 9.899100000000001e-11 9.989999999999999e-13 0.9999999999999999 9.998900100000003e-17 9.998001000000001e-21 9.989999999999997e-25 0.99999999999901 9.899001090000002e-13 8.998101000000001e-17 9.989999999999999e-21 0.999999999999 9.989901000000002e-13 9.989010000000001e-16 9.989999999999998e-19 0.99999999999901 9.899001090000002e-13 8.998101000000001e-17 9.989999999999999e-21 0.999999990199098 9.800092071000002e-09 8.098191e-13 9.989999999999999e-17 0.999999990100099 9.890901900000001e-09 8.989110000000001e-12 9.989999999999999e-15 0.999999999999 9.989901000000002e-13 9.989010000000001e-16 9.989999999999998e-19 0.999999990100099 9.890901900000001e-09 8.989110000000001e-12 9.989999999999999e-15 0.9999999900001 9.899910000000002e-09 9.899100000000001e-11 9.989999999999999e-13 0.999999999999 9.989901000000002e-13 9.989010000000001e-16 9.989999999999998e-19 0.999999990100099 9.890901900000001e-09 8.989110000000001e-12 9.989999999999999e-15 0.9999999900001 9.899910000000002e-09 9.899100000000001e-11 9.989999999999999e-13 0.999999990100099 9.890901900000001e-09 8.989110000000001e-12 9.989999999999999e-15 0.9999019909801 9.7928028e-05 8.089199999999999e-08 9.989999999999999e-11 0.99990100099 9.80991e-05 8.899200000000001e-07 9.989999999999999e-09 0.9999999900001 9.899910000000002e-09 9.899100000000001e-11 9.989999999999999e-13 0.99990100099 9.80991e-05 8.899200000000001e-07 9.989999999999999e-09 0.999900001 9.000000000000001e-05 9e-06 9.989999999999999e-07 1 9.999800010000003e-21 9.998900100000002e-26 9.989999999999997e-31 0.9999999999999999 9.899811009000002e-17 8.9990001e-22 9.989999999999997e-27 0.9999999999999999 9.998900100000003e-17 9.998001000000001e-21 9.989999999999997e-25 0.9999999999999999 9.899811009000002e-17 8.999000100000002e-22 9.989999999999999e-27 0.9999999999990199 9.800820998100001e-13 8.099090100000001e-18 9.989999999999999e-23 0.99999999999901 9.899001090000002e-13 8.998101000000001e-17 9.989999999999999e-21 0.9999999999999999 9.998900100000003e-17 9.998001000000001e-21 9.989999999999997e-25 0.99999999999901 9.899001090000002e-13 8.998101000000001e-17 9.989999999999999e-21 0.999999999999 9.989901000000002e-13 9.989010000000001e-16 9.989999999999998e-19 0.9999999999999999 9.998900100000003e-17 9.998001000000001e-21 9.989999999999997e-25 0.99999999999901 9.899001090000002e-13 8.998101000000001e-17 9.989999999999999e-21 0.999999999999 9.989901000000002e-13 9.989010000000001e-16 9.989999999999998e-19 0.99999999999901 9.899001090000002e-13 8.998101000000001e-17 9.989999999999999e-21 0.999999990199098 9.800092071000002e-09 8.098191e-13 9.989999999999999e-17 0.999999990100099 9.890901900000001e-09 8.989110000000001e-12 9.989999999999999e-15 0.999999999999 9.989901000000002e-13 9.989010000000001e-16 9.989999999999998e-19 0.999999990100099 9.890901900000001e-09 8.989110000000001e-12 9.989999999999999e-15 0.9999999900001 9.899910000000002e-09 9.899100000000001e-11 9.989999999999999e-13 0.9999999999999999 9.998900100000003e-17 9.998001000000001e-21 9.989999999999997e-25 0.99999999999901 9.899001090000002e-13 8.998101000000001e-17 9.989999999999999e-21 0.999999999999 9.989901000000002e-13 9.989010000000001e-16 9.989999999999998e-19 0.99999999999901 9.899001090000002e-13 8.998101000000001e-17 9.989999999999999e-21 0.999999990199098 9.800092071000002e-09 8.098191e-13 9.989999999999999e-17 0.999999990100099 9.890901900000001e-09 8.989110000000001e-12 9.989999999999999e-15 0.999999999999 9.989901000000002e-13 9.989010000000001e-16 9.989999999999998e-19 0.999999990100099 9.890901900000001e-09 8.989110000000001e-12 9.989999999999999e-15 0.9999999900001 9.899910000000002e-09 9.899100000000001e-11 9.989999999999999e-13 0.999999999999 9.989901000000002e-13 9.989010000000001e-16 9.989999999999998e-19 0.999999990100099 9.890901900000001e-09 8.989110000000001e-12 9.989999999999999e-15 0.9999999900001 9.899910000000002e-09 9.899100000000001e-11 9.989999999999999e-13 0.999999990100099 9.890901900000001e-09 8.989110000000001e-12 9.989999999999999e-15 0.9999019909801 9.7928028e-05 8.089199999999999e-08 9.989999999999999e-11 0.99990100099 9.80991e-05 8.899200000000001e-07 9.989999999999999e-09 0.9999999900001 9.899910000000002e-09 9.899100000000001e-11 9.989999999999999e-13 0.99990100099 9.80991e-05 8.899200000000001e-07 9.989999999999999e-09 0.999900001 9.000000000000001e-05 9e-06 9.989999999999999e-07 0.9999999999999999 9.899811009000002e-17 8.999000100000002e-22 9.99e-27 0.9999999999990199 9.800820998100001e-13 8.099090100000003e-18 9.990000000000001e-23 0.99999999999901 9.899001090000002e-13 8.998101000000003e-17 9.99e-21 0.9999999999990199 9.800820998100003e-13 8.099090100000003e-18 9.99e-23 0.9999999902971071 9.702820077390002e-09 7.289171100000001e-14 9.99e-19 0.999999990199098 9.800092071000002e-09 8.098191000000002e-13 9.990000000000001e-17 0.99999999999901 9.899001090000002e-13 8.998101000000003e-17 9.99e-21 0.999999990199098 9.800092071000002e-09 8.098191000000002e-13 9.990000000000001e-17 0.999999990100099 9.890901900000001e-09 8.989110000000003e-12 9.99e-15 0.99999999999901 9.899001090000002e-13 8.998101000000003e-17 9.99e-21 0.999999990199098 9.800092071000002e-09 8.098191000000002e-13 9.990000000000001e-17 0.999999990100099 9.890901900000001e-09 8.989110000000003e-12 9.99e-15 0.999999990199098 9.800092071e-09 8.098191000000002e-13 9.990000000000001e-17 0.999902971070299 9.702164043e-05 7.288272e-09 9.990000000000001e-13 0.9999019909801 9.7928028e-05 8.089200000000001e-08 9.990000000000001e-11 0.999999990100099 9.890901900000001e-09 8.989110000000003e-12 9.99e-15 0.9999019909801 9.7928028e-05 8.089200000000001e-08 9.990000000000001e-11 0.99990100099 9.80991e-05 8.899200000000001e-07 9.99e-09 0.99999999999901 9.899001090000002e-13 8.998101000000003e-17 9.99e-21 0.999999990199098 9.800092071000002e-09 8.098191000000002e-13 9.990000000000001e-17 0.999999990100099 9.890901900000001e-09 8.989110000000003e-12 9.99e-15 0.999999990199098 9.800092071e-09 8.098191000000002e-13 9.990000000000001e-17 0.999902971070299 9.702164043e-05 7.288272e-09 9.990000000000001e-13 0.9999019909801 9.7928028e-05 8.089200000000001e-08 9.990000000000001e-11 0.999999990100099 9.890901900000001e-09 8.989110000000003e-12 9.99e-15 0.9999019909801 9.7928028e-05 8.089200000000001e-08 9.990000000000001e-11 0.99990100099 9.80991e-05 8.899200000000001e-07 9.99e-09 0.999999990100099 9.890901900000001e-09 8.989110000000003e-12 9.99e-15 0.9999019909801 9.7928028e-05 8.089200000000001e-08 9.990000000000001e-11 0.99990100099 9.80991e-05 8.899200000000001e-07 9.99e-09 0.9999019909801 9.7928028e-05 8.089199999999999e-08 9.99e-11 0.02971070299000012 0.9695603699099998 0.0007279280999999999 9.990000000000001e-07 0.01990980100000006 0.9719910089999999 0.007999289999999999 9.99e-05 0.99990100099 9.80991e-05 8.899200000000001e-07 9.99e-09 0.01990980100000006 0.9719910089999999 0.007999289999999999 9.99e-05 0.01000990000000002 0.8999990999999999 0.080001 0.009990000000000001 0.9999999999999999 9.998900100000003e-17 9.998001000000001e-21 9.989999999999997e-25 0.99999999999901 9.899001090000002e-13 8.998101000000001e-17 9.989999999999999e-21 0.999999999999 9.989901000000002e-13 9.989010000000001e-16 9.989999999999998e-19 0.99999999999901 9.899001090000002e-13 8.998101000000001e-17 9.989999999999999e-21 0.999999990199098 9.800092071000002e-09 8.098191e-13 9.989999999999999e-17 0.999999990100099 9.890901900000001e-09 8.989110000000001e-12 9.989999999999999e-15 0.999999999999 9.989901000000002e-13 9.989010000000001e-16 9.989999999999998e-19 0.999999990100099 9.890901900000001e-09 8.989110000000001e-12 9.989999999999999e-15 0.9999999900001 9.899910000000002e-09 9.899100000000001e-11 9.989999999999999e-13 0.999999999999 9.989901000000002e-13 9.989010000000001e-16 9.989999999999998e-19 0.999999990100099 9.890901900000001e-09 8.989110000000001e-12 9.989999999999999e-15 0.9999999900001 9.899910000000002e-09 9.899100000000001e-11 9.989999999999999e-13 0.999999990100099 9.890901900000001e-09 8.989110000000001e-12 9.989999999999999e-15 0.9999019909801 9.7928028e-05 8.089199999999999e-08 9.989999999999999e-11 0.99990100099 9.80991e-05 8.899200000000001e-07 9.989999999999999e-09 0.9999999900001 9.899910000000002e-09 9.899100000000001e-11 9.989999999999999e-13 0.99990100099 9.80991e-05 8.899200000000001e-07 9.989999999999999e-09 0.999900001 9.000000000000001e-05 9e-06 9.989999999999999e-07 0.999999999999 9.989901000000002e-13 9.989010000000001e-16 9.989999999999998e-19 0.999999990100099 9.890901900000001e-09 8.989110000000001e-12 9.989999999999999e-15 0.9999999900001 9.899910000000002e-09 9.899100000000001e-11 9.989999999999999e-13 0.999999990100099 9.890901900000001e-09 8.989110000000001e-12 9.989999999999999e-15 0.9999019909801 9.7928028e-05 8.089199999999999e-08 9.989999999999999e-11 0.99990100099 9.80991e-05 8.899200000000001e-07 9.989999999999999e-09 0.9999999900001 9.899910000000002e-09 9.899100000000001e-11 9.989999999999999e-13 0.99990100099 9.80991e-05 8.899200000000001e-07 9.989999999999999e-09 0.999900001 9.000000000000001e-05 9e-06 9.989999999999999e-07 0.9999999900001 9.899910000000002e-09 9.899100000000001e-11 9.989999999999999e-13 0.99990100099 9.80991e-05 8.899200000000001e-07 9.989999999999999e-09 0.999900001 9.000000000000001e-05 9e-06 9.989999999999999e-07 0.99990100099 9.80991e-05 8.899200000000001e-07 9.99e-09 0.01990980100000006 0.9719910089999999 0.007999289999999999 9.99e-05 0.01000990000000002 0.8999990999999999 0.080001 0.009990000000000001 0.999900001 9.000000000000001e-05 9e-06 9.989999999999999e-07 0.01000990000000002 0.8999990999999999 0.080001 0.009990000000000001 9.99999999995449e-06 9.00000000000345e-05 0.0009000000000000119 0.999</probabilities>
		</cpt>
		<cpt id="电动供油泵2_2" target="true" diagtype="target">
			<state id="故障" fault="true" />
			<state id="正常" />
			<probabilities>0.0001 0.9999</probabilities>
		</cpt>
		<cpt id="油滤2_4" target="true" diagtype="target">
			<state id="阻塞" fault="true" />
			<state id="正常" />
			<probabilities>0.0001 0.9999</probabilities>
		</cpt>
		<cpt id="滑油冷却器2_5" target="true" diagtype="target">
			<state id="故障" fault="true" />
			<state id="正常" />
			<probabilities>0.0001 0.9999</probabilities>
		</cpt>
		<cpt id="热电阻2_7_1" target="true" diagtype="target">
			<state id="损坏" fault="true" />
			<state id="正常" />
			<probabilities>0.0001 0.9999</probabilities>
		</cpt>
		<cpt id="测量线路2_7_2" target="true" diagtype="target">
			<state id="断路" fault="true" />
			<state id="正常" />
			<probabilities>0.0001 0.9999</probabilities>
		</cpt>
		<cpt id="回油温度测量组件2_7" target="true" diagtype="target">
			<state id="故障" fault="true" />
			<state id="正常" />
			<parents>热电阻2_7_1 测量线路2_7_2</parents>
			<probabilities>0.99999900001 9.999900000000001e-07 0.99900001 0.0009999900000000001 0.99900001 0.0009999900000000001 9.99999999995449e-06 0.99999</probabilities>
		</cpt>
		<cpt id="回油止回阀密封不严2_6_a" target="true" diagtype="target">
			<state id="发生" fault="true" />
			<state id="未发生" />
			<probabilities>0.0001 0.9999</probabilities>
		</cpt>
		<cpt id="回油止回阀2_6" target="true" diagtype="target">
			<state id="故障" fault="true" />
			<state id="劣化" />
			<state id="正常" />
			<parents>回油止回阀密封不严2_6_a</parents>
			<probabilities>0.89 0.1 0.01 0.0001 0.01 0.9899</probabilities>
		</cpt>
		<cpt id="电机及其控制线路2_1_1" target="true" diagtype="target">
			<state id="损坏" fault="true" />
			<state id="正常" />
			<probabilities>0.0001 0.9999</probabilities>
		</cpt>
		<cpt id="位置反馈信号线路2_1_2" target="true" diagtype="target">
			<state id="损坏" fault="true" />
			<state id="正常" />
			<probabilities>0.0001 0.9999</probabilities>
		</cpt>
		<cpt id="信号通路2_1_3" target="true" diagtype="target">
			<state id="故障" fault="true" />
			<state id="正常" />
			<probabilities>0.0001 0.9999</probabilities>
		</cpt>
		<cpt id="滑油通气阀未打开2_1_a" target="true" diagtype="target">
			<state id="发生" fault="true" />
			<state id="未发生" />
			<probabilities>0.0001 0.9999</probabilities>
		</cpt>
		<cpt id="LOP板指示灯及线路2_1_4" target="true" diagtype="target">
			<state id="损坏" fault="true" />
			<state id="正常" />
			<probabilities>0.0001 0.9999</probabilities>
		</cpt>
		<cpt id="滑油通气阀2_1" target="true" diagtype="target">
			<state id="故障" fault="true" />
			<state id="劣化" />
			<state id="正常" />
			<parents>电机及其控制线路2_1_1 位置反馈信号线路2_1_2 信号通路2_1_3 滑油通气阀未打开2_1_a LOP板指示灯及线路2_1_4</parents>
			<probabilities>0.9999999999002001 9.976832000000002e-11 3.168e-14 0.99999999002 9.964160000000002e-09 1.584e-11 0.99999999002 9.964160000000002e-09 1.584e-11 0.999999002 9.900800000000001e-07 7.920000000000001e-09 0.99999999002 9.964160000000002e-09 1.584e-11 0.999999002 9.900800000000001e-07 7.920000000000001e-09 0.999999002 9.900800000000001e-07 7.920000000000001e-09 0.9999002 9.584000000000002e-05 3.96e-06 0.99999999002 9.964160000000002e-09 1.584e-11 0.999999002 9.900800000000001e-07 7.920000000000001e-09 0.999999002 9.900800000000001e-07 7.920000000000001e-09 0.9999002 9.584000000000002e-05 3.96e-06 0.999999002 9.900800000000001e-07 7.920000000000001e-09 0.9999002 9.584000000000002e-05 3.96e-06 0.9999002 9.584000000000002e-05 3.96e-06 0.99002 0.008 0.00198 0.99999999002 9.964160000000002e-09 1.584e-11 0.999999002 9.900800000000001e-07 7.920000000000001e-09 0.999999002 9.900800000000001e-07 7.920000000000001e-09 0.9999002 9.584000000000002e-05 3.96e-06 0.999999002 9.900800000000001e-07 7.920000000000001e-09 0.9999002 9.584000000000002e-05 3.96e-06 0.9999002 9.584000000000002e-05 3.96e-06 0.99002 0.008 0.00198 0.999999002 9.900800000000001e-07 7.920000000000001e-09 0.9999002 9.584000000000002e-05 3.96e-06 0.9999002 9.584000000000002e-05 3.96e-06 0.99002 0.008 0.00198 0.9999002 9.584000000000002e-05 3.96e-06 0.99002 0.008 0.00198 0.99002 0.008 0.00198 0.002000000000000002 0.008000000000000007 0.99</probabilities>
		</cpt>
		<cpt id="滑油系统2" target="true" diagtype="target">
			<state id="故障" fault="true" />
			<state id="劣化" />
			<state id="报警" />
			<state id="正常" />
			<parents>电动供油泵2_2 油滤2_4 滑油冷却器2_5 回油温度测量组件2_7 回油止回阀2_6 滑油通气阀2_1</parents>
			<probabilities>0.9999999999999 9.959080860409601e-14 4.09091495905e-16 9.889999900000001e-20 0.99999999999001 9.989079221709217e-12 9.20579490785e-16 9.889999900000001e-20 0.99999999999 9.897702301024001e-12 1.02198698977e-13 9.889999900000001e-17 0.99999999999001 9.989079221709217e-12 9.20579490785e-16 9.889999900000001e-20 0.999999999001999 9.979989184936109e-10 2.071427479265e-15 9.889999900000001e-20 0.999999999001 9.987698204123041e-10 2.30070697697e-13 9.889999900000001e-17 0.99999999999 9.897702301024001e-12 1.02198698977e-13 9.889999900000001e-17 0.999999999001 9.987698204123041e-10 2.30070697697e-13 9.889999900000001e-17 0.999999999 9.744255902560001e-10 2.5475499745e-11 9.889999900000001e-14 0.99999999999 9.897702301024001e-12 1.02198698977e-13 9.889999900000001e-17 0.999999999001 9.987698204123041e-10 2.30070697697e-13 9.889999900000001e-17 0.999999999 9.744255902560001e-10 2.5475499745e-11 9.889999900000001e-14 0.999999999001 9.987698204123041e-10 2.300706976970001e-13 9.889999900000001e-17 0.999999900199901 9.979958112040418e-08 5.177826948170002e-13 9.889999900000001e-17 0.9999999001000009 9.9842456601576e-08 5.744349942500001e-11 9.889999900000001e-14 0.999999999 9.744255902560001e-10 2.5475499745e-11 9.889999900000001e-14 0.9999999001000009 9.9842456601576e-08 5.744349942500001e-11 9.889999900000001e-14 0.9999999000000011 9.3606399064e-08 6.294699937e-09 9.889999900000001e-11 0.99999999999 9.897702301024001e-12 1.02198698977e-13 9.889999900000001e-17 0.999999999001 9.987698204123041e-10 2.30070697697e-13 9.889999900000001e-17 0.999999999 9.744255902560001e-10 2.5475499745e-11 9.889999900000001e-14 0.999999999001 9.987698204123041e-10 2.300706976970001e-13 9.889999900000001e-17 0.999999900199901 9.979958112040418e-08 5.177826948170002e-13 9.889999900000001e-17 0.9999999001000009 9.9842456601576e-08 5.744349942500001e-11 9.889999900000001e-14 0.999999999 9.744255902560001e-10 2.5475499745e-11 9.889999900000001e-14 0.9999999001000009 9.9842456601576e-08 5.744349942500001e-11 9.889999900000001e-14 0.9999999000000011 9.3606399064e-08 6.294699937e-09 9.889999900000001e-11 0.999999999 9.744255902560001e-10 2.5475499745e-11 9.889999900000001e-14 0.9999999001000009 9.9842456601576e-08 5.744349942500001e-11 9.889999900000001e-14 0.9999999000000011 9.3606399064e-08 6.294699937e-09 9.889999900000001e-11 0.9999999001000009 9.984245660157601e-08 5.744349942500001e-11 9.889999900000001e-14 0.9999900199900998 9.979880429801198e-06 1.29371498705e-10 9.889999900000001e-14 0.9999900100000999 9.975614300244001e-06 1.4286699857e-08 9.889999900000001e-11 0.9999999000000011 9.3606399064e-08 6.294699937e-09 9.889999900000001e-11 0.9999900100000999 9.975614300244001e-06 1.4286699857e-08 9.889999900000001e-11 0.9999900000001 8.401599916000001e-06 1.499499985e-06 9.8899999e-08 0.99999999999 9.897702301024001e-12 1.02198698977e-13 9.889999900000001e-17 0.999999999001 9.987698204123041e-10 2.30070697697e-13 9.889999900000001e-17 0.999999999 9.744255902560001e-10 2.5475499745e-11 9.889999900000001e-14 0.999999999001 9.987698204123041e-10 2.300706976970001e-13 9.889999900000001e-17 0.999999900199901 9.979958112040418e-08 5.177826948170002e-13 9.889999900000001e-17 0.9999999001000009 9.9842456601576e-08 5.744349942500001e-11 9.889999900000001e-14 0.999999999 9.744255902560001e-10 2.5475499745e-11 9.889999900000001e-14 0.9999999001000009 9.9842456601576e-08 5.744349942500001e-11 9.889999900000001e-14 0.9999999000000011 9.3606399064e-08 6.294699937e-09 9.889999900000001e-11 0.999999999 9.744255902560001e-10 2.5475499745e-11 9.889999900000001e-14 0.9999999001000009 9.9842456601576e-08 5.744349942500001e-11 9.889999900000001e-14 0.9999999000000011 9.3606399064e-08 6.294699937e-09 9.889999900000001e-11 0.9999999001000009 9.984245660157601e-08 5.744349942500001e-11 9.889999900000001e-14 0.9999900199900998 9.979880429801198e-06 1.29371498705e-10 9.889999900000001e-14 0.9999900100000999 9.975614300244001e-06 1.4286699857e-08 9.889999900000001e-11 0.9999999000000011 9.3606399064e-08 6.294699937e-09 9.889999900000001e-11 0.9999900100000999 9.975614300244001e-06 1.4286699857e-08 9.889999900000001e-11 0.9999900000001 8.401599916000001e-06 1.499499985e-06 9.8899999e-08 0.999999999 9.744255902560001e-10 2.5475499745e-11 9.889999900000001e-14 0.9999999001000009 9.9842456601576e-08 5.744349942500001e-11 9.889999900000001e-14 0.9999999000000011 9.3606399064e-08 6.294699937e-09 9.889999900000001e-11 0.9999999001000009 9.984245660157601e-08 5.744349942500001e-11 9.889999900000001e-14 0.9999900199900998 9.979880429801198e-06 1.29371498705e-10 9.889999900000001e-14 0.9999900100000999 9.975614300244001e-06 1.4286699857e-08 9.889999900000001e-11 0.9999999000000011 9.3606399064e-08 6.294699937e-09 9.889999900000001e-11 0.9999900100000999 9.975614300244001e-06 1.4286699857e-08 9.889999900000001e-11 0.9999900000001 8.401599916000001e-06 1.499499985e-06 9.8899999e-08 0.9999999000000011 9.3606399064e-08 6.294699937e-09 9.889999900000001e-11 0.9999900100000999 9.975614300244001e-06 1.4286699857e-08 9.889999900000001e-11 0.9999900000001 8.401599916000001e-06 1.499499985e-06 9.8899999e-08 0.9999900100000999 9.975614300243999e-06 1.4286699857e-08 9.889999900000001e-11 0.99900199900998 0.000997968622420314 3.226869967700001e-08 9.889999900000001e-11 0.99900100000999 0.0009954035900459999 3.497499965e-06 9.8899999e-08 0.9999900000001 8.401599916000001e-06 1.499499985e-06 9.8899999e-08 0.99900100000999 0.0009954035900459999 3.497499965e-06 9.8899999e-08 0.99900000001 0.0006003999940000001 0.000300699997 9.8899999e-05 0.9999999999 9.897702301024002e-11 1.02198698977e-12 9.889999900000001e-16 0.9999999900100001 9.98769820412304e-09 2.30070697697e-12 9.889999900000001e-16 0.9999999900000001 9.74425590256e-09 2.5475499745e-10 9.8899999e-13 0.9999999900100001 9.98769820412304e-09 2.30070697697e-12 9.889999900000001e-16 0.9999990019990099 9.979958112040417e-07 5.17782694817e-12 9.889999900000001e-16 0.9999990010000099 9.984245660157599e-07 5.7443499425e-10 9.8899999e-13 0.9999999900000001 9.74425590256e-09 2.5475499745e-10 9.8899999e-13 0.9999990010000099 9.984245660157599e-07 5.7443499425e-10 9.8899999e-13 0.99999900000001 9.360639906399999e-07 6.294699936999999e-08 9.8899999e-10 0.9999999900000001 9.74425590256e-09 2.5475499745e-10 9.8899999e-13 0.9999990010000099 9.984245660157599e-07 5.7443499425e-10 9.8899999e-13 0.99999900000001 9.360639906399999e-07 6.294699936999999e-08 9.8899999e-10 0.9999990010000099 9.984245660157599e-07 5.7443499425e-10 9.8899999e-13 0.999900199900998 9.979880429801195e-05 1.29371498705e-09 9.8899999e-13 0.999900100000999 9.975614300243999e-05 1.4286699857e-07 9.8899999e-10 0.99999900000001 9.360639906399999e-07 6.294699936999999e-08 9.8899999e-10 0.999900100000999 9.975614300243999e-05 1.4286699857e-07 9.8899999e-10 0.999900000001 8.401599915999999e-05 1.499499985e-05 9.889999899999999e-07 0.9999999900000001 9.74425590256e-09 2.5475499745e-10 9.8899999e-13 0.9999990010000099 9.984245660157599e-07 5.7443499425e-10 9.8899999e-13 0.99999900000001 9.360639906399999e-07 6.294699936999999e-08 9.8899999e-10 0.9999990010000099 9.984245660157599e-07 5.7443499425e-10 9.8899999e-13 0.999900199900998 9.979880429801195e-05 1.29371498705e-09 9.8899999e-13 0.999900100000999 9.975614300243999e-05 1.4286699857e-07 9.8899999e-10 0.99999900000001 9.360639906399999e-07 6.294699936999999e-08 9.8899999e-10 0.999900100000999 9.975614300243999e-05 1.4286699857e-07 9.8899999e-10 0.999900000001 8.401599915999999e-05 1.499499985e-05 9.889999899999999e-07 0.99999900000001 9.360639906399999e-07 6.294699936999999e-08 9.8899999e-10 0.999900100000999 9.975614300243999e-05 1.4286699857e-07 9.8899999e-10 0.999900000001 8.401599915999999e-05 1.499499985e-05 9.889999899999999e-07 0.999900100000999 9.975614300243999e-05 1.4286699857e-07 9.8899999e-10 0.9900199900998001 0.009979686224203138 3.226869967700001e-07 9.8899999e-10 0.9900100000999 0.00995403590046 3.497499965000001e-05 9.889999899999999e-07 0.999900000001 8.401599915999999e-05 1.499499985e-05 9.889999899999999e-07 0.9900100000999 0.00995403590046 3.497499965000001e-05 9.889999899999999e-07 0.9900000001 0.006003999939999999 0.00300699997 0.0009889999899999999 0.9999999900000001 9.74425590256e-09 2.5475499745e-10 9.8899999e-13 0.9999990010000099 9.984245660157599e-07 5.7443499425e-10 9.8899999e-13 0.99999900000001 9.360639906399999e-07 6.294699936999999e-08 9.8899999e-10 0.9999990010000099 9.984245660157599e-07 5.7443499425e-10 9.8899999e-13 0.999900199900998 9.979880429801195e-05 1.29371498705e-09 9.8899999e-13 0.999900100000999 9.975614300243999e-05 1.4286699857e-07 9.8899999e-10 0.99999900000001 9.360639906399999e-07 6.294699936999999e-08 9.8899999e-10 0.999900100000999 9.975614300243999e-05 1.4286699857e-07 9.8899999e-10 0.999900000001 8.401599915999999e-05 1.499499985e-05 9.889999899999999e-07 0.99999900000001 9.360639906399999e-07 6.294699936999999e-08 9.8899999e-10 0.999900100000999 9.975614300243999e-05 1.4286699857e-07 9.8899999e-10 0.999900000001 8.401599915999999e-05 1.499499985e-05 9.889999899999999e-07 0.999900100000999 9.975614300243999e-05 1.4286699857e-07 9.8899999e-10 0.9900199900998001 0.009979686224203138 3.226869967700001e-07 9.8899999e-10 0.9900100000999 0.00995403590046 3.497499965000001e-05 9.889999899999999e-07 0.999900000001 8.401599915999999e-05 1.499499985e-05 9.889999899999999e-07 0.9900100000999 0.00995403590046 3.497499965000001e-05 9.889999899999999e-07 0.9900000001 0.006003999939999999 0.00300699997 0.0009889999899999999 0.99999900000001 9.360639906399999e-07 6.294699936999999e-08 9.8899999e-10 0.999900100000999 9.975614300243999e-05 1.4286699857e-07 9.8899999e-10 0.999900000001 8.401599915999999e-05 1.499499985e-05 9.889999899999999e-07 0.999900100000999 9.975614300243999e-05 1.4286699857e-07 9.8899999e-10 0.9900199900998001 0.009979686224203138 3.226869967700001e-07 9.8899999e-10 0.9900100000999 0.00995403590046 3.497499965000001e-05 9.889999899999999e-07 0.999900000001 8.401599915999999e-05 1.499499985e-05 9.889999899999999e-07 0.9900100000999 0.00995403590046 3.497499965000001e-05 9.889999899999999e-07 0.9900000001 0.006003999939999999 0.00300699997 0.0009889999899999999 0.999900000001 8.401599915999999e-05 1.499499985e-05 9.889999899999999e-07 0.9900100000999 0.00995403590046 3.497499965000001e-05 9.889999899999999e-07 0.9900000001 0.006003999939999999 0.00300699997 0.0009889999899999999 0.9900100000999 0.00995403590046 3.497499965000001e-05 9.889999899999999e-07 0.001999009980010014 0.9979200710207999 7.992999920000002e-05 9.889999899999999e-07 0.00100000999000005 0.9900089901 0.008001999920000001 0.0009889999899999999 0.9900000001 0.006003999939999999 0.00300699997 0.0009889999899999999 0.00100000999000005 0.9900089901 0.008001999920000001 0.0009889999899999999 1.000000005024759e-08 0.001000000000000001 0.01000000000000001 0.9889999899999999</probabilities>
		</cpt>
		<cpt id="伞形齿轮4_1" target="true" diagtype="target">
			<state id="故障" fault="true" />
			<state id="正常" />
			<probabilities>0.0001 0.9999</probabilities>
		</cpt>
		<cpt id="启动机传动链保护轴套4_2" target="true" diagtype="target">
			<state id="脱位" fault="true" />
			<state id="正常" />
			<probabilities>0.0001 0.9999</probabilities>
		</cpt>
		<cpt id="密封圈4_3_1" target="true" diagtype="target">
			<state id="损坏" fault="true" />
			<state id="正常" />
			<probabilities>0.0001 0.9999</probabilities>
		</cpt>
		<cpt id="转速传感器传动轴4_3_2" target="true" diagtype="target">
			<state id="脱位" fault="true" />
			<state id="正常" />
			<probabilities>0.0001 0.9999</probabilities>
		</cpt>
		<cpt id="轴承保持架4_3_3" target="true" diagtype="target">
			<state id="断裂" fault="true" />
			<state id="正常" />
			<probabilities>0.0001 0.9999</probabilities>
		</cpt>
		<cpt id="下部传动箱4_3" target="true" diagtype="target">
			<state id="故障" fault="true" />
			<state id="正常" />
			<parents>密封圈4_3_1 转速传感器传动轴4_3_2 轴承保持架4_3_3</parents>
			<probabilities>0.999999901 9.900000000000003e-08 0.9999901 9.900000000000002e-06 0.999901 9.900000000000001e-05 0.9901 0.009900000000000001 0.9999901 9.9e-06 0.99901 0.00099 0.9901 0.009900000000000001 0.01000000000000001 0.99</probabilities>
		</cpt>
		<cpt id="附件传动系统4" target="true" diagtype="target">
			<state id="故障" fault="true" />
			<state id="劣化" />
			<state id="正常" />
			<parents>伞形齿轮4_1 启动机传动链保护轴套4_2 下部传动箱4_3</parents>
			<probabilities>0.999999999 9.920007900800025e-10 7.999199920000095e-12 0.99999900000001 9.600039904000016e-07 3.999599960000031e-08 0.99999900000001 9.600039904000016e-07 3.999599960000031e-08 0.99900000001 0.0008000199920000002 0.0001999799980000008 0.99999900000001 9.600039904000016e-07 3.999599960000031e-08 0.99900000001 0.0008000199920000002 0.0001999799980000008 0.99900000001 0.0008000199920000002 0.0001999799980000008 1.000000005024759e-08 9.999999999998899e-05 0.99989999</probabilities>
		</cpt>
		<cpt id="起动电机5_1" target="true" diagtype="target">
			<state id="损坏" fault="true" />
			<state id="正常" />
			<probabilities>0.0001 0.9999</probabilities>
		</cpt>
		<cpt id="电流变送器5_2" target="true" diagtype="target">
			<state id="故障" fault="true" />
			<state id="正常" />
			<probabilities>0.0001 0.9999</probabilities>
		</cpt>
		<cpt id="控制模块5_3_1" target="true" diagtype="target">
			<state id="损坏" fault="true" />
			<state id="正常" />
			<probabilities>0.0001 0.9999</probabilities>
		</cpt>
		<cpt id="电接触器箱5_3" target="true" diagtype="target">
			<state id="故障" fault="true" />
			<state id="正常" />
			<parents>控制模块5_3_1</parents>
			<probabilities>0.999 0.001 0.0001 0.9999</probabilities>
		</cpt>
		<cpt id="起动空气阀5_4" target="true" diagtype="target">
			<state id="故障" fault="true" />
			<state id="正常" />
			<probabilities>0.0001 0.9999</probabilities>
		</cpt>
		<cpt id="电流信号线5_5" target="true" diagtype="target">
			<state id="故障" fault="true" />
			<state id="正常" />
			<probabilities>0.0001 0.9999</probabilities>
		</cpt>
		<cpt id="起动系统5" target="true" diagtype="target">
			<state id="故障" fault="true" />
			<state id="劣化" />
			<state id="正常" />
			<parents>起动电机5_1 电流变送器5_2 电接触器箱5_3 起动空气阀5_4 电流信号线5_5</parents>
			<probabilities>0.999999999999999 9.998900109999999e-16 9.989000000000003e-21 0.9999999999990001 9.9980011e-13 9.989000000000002e-17 0.9999999999990001 9.9980011e-13 9.989000000000002e-17 0.9999999990000999 9.989011000000001e-10 9.989000000000001e-13 0.9999999999990001 9.9980011e-13 9.989000000000002e-17 0.9999999990000999 9.989011000000001e-10 9.989000000000001e-13 0.9999999990000999 9.989011000000001e-10 9.989000000000001e-13 0.9999990001 9.899109999999999e-07 9.989000000000001e-09 0.9999999999990001 9.9980011e-13 9.989000000000002e-17 0.9999999990000999 9.989011000000001e-10 9.989000000000001e-13 0.9999999990000999 9.989011000000001e-10 9.989000000000001e-13 0.9999990001 9.899109999999999e-07 9.989000000000001e-09 0.9999999990000999 9.989011000000001e-10 9.989000000000001e-13 0.9999990001 9.899109999999999e-07 9.989000000000001e-09 0.9999990001 9.899109999999999e-07 9.989000000000001e-09 0.9990000999999999 0.0009000099999999999 9.989000000000001e-05 0.9999999999990001 9.9980011e-13 9.989000000000002e-17 0.9999999990000999 9.989011000000001e-10 9.989000000000001e-13 0.9999999990000999 9.989011000000001e-10 9.989000000000001e-13 0.9999990001 9.899109999999999e-07 9.989000000000001e-09 0.9999999990000999 9.989011000000001e-10 9.989000000000001e-13 0.9999990001 9.899109999999999e-07 9.989000000000001e-09 0.9999990001 9.899109999999999e-07 9.989000000000001e-09 0.9990000999999999 0.0009000099999999999 9.989000000000001e-05 0.9999999990000999 9.989011000000001e-10 9.989000000000001e-13 0.9999990001 9.899109999999999e-07 9.989000000000001e-09 0.9999990001 9.899109999999999e-07 9.989000000000001e-09 0.9990000999999999 0.0009000099999999999 9.989000000000001e-05 0.9999990001 9.899109999999999e-07 9.989000000000001e-09 0.9990000999999999 0.0009000099999999999 9.989000000000001e-05 0.9990000999999999 0.0009000099999999999 9.989000000000001e-05 9.999999999998899e-05 0.001000000000000001 0.9989</probabilities>
		</cpt>
		<cpt id="压力信号器持续报警P1_10" target="true" diagtype="observation" ranked="true">
			<state id="发生" />
			<state id="未发生" />
			<parents>细油滤1_2_1 压力信号器膜片损坏1_2_2_a 压力信号器接头侵水1_2_2_b</parents>
			<probabilities>0.9999990010000001 9.990000000000001e-07 0.9999001 9.99e-05 0.9999001 9.99e-05 0.9900099999999999 0.009990000000000001 0.9999001 9.99e-05 0.9900099999999999 0.009990000000000001 0.9900099999999999 0.009990000000000001 0.001000000000000001 0.999</probabilities>
		</cpt>
		<cpt id="卡住6_3_1_3_1_c" target="true" diagtype="target">
			<state id="发生" fault="true" />
			<state id="未发生" />
			<probabilities>0.0001 0.9999</probabilities>
		</cpt>
		<cpt id="进口可转导叶6_3_1_3_1" target="true" diagtype="target">
			<state id="故障" fault="true" />
			<state id="劣化" />
			<state id="正常" />
			<parents>卡住6_3_1_3_1_c</parents>
			<probabilities>0.99999001 9.001000000000001e-06 9.89e-07 0.001000000000000001 0.01000000000000001 0.989</probabilities>
		</cpt>
		<cpt id="进口导叶控制系统滤器堵塞6_3_1_3_2_a" target="true" diagtype="target">
			<state id="发生" fault="true" />
			<state id="未发生" />
			<probabilities>0.0001 0.9999</probabilities>
		</cpt>
		<cpt id="进口导叶控制系统不密封6_3_1_3_2_b" target="true" diagtype="target">
			<state id="发生" fault="true" />
			<state id="未发生" />
			<probabilities>0.0001 0.9999</probabilities>
		</cpt>
		<cpt id="进口导叶控制系统6_3_1_3_2" target="true" diagtype="target">
			<state id="故障" fault="true" />
			<state id="劣化" />
			<state id="正常" />
			<parents>进口导叶控制系统滤器堵塞6_3_1_3_2_a 进口导叶控制系统不密封6_3_1_3_2_b</parents>
			<probabilities>0.990001 0.009998999900099999 9.990000000000001e-11 0.90001 0.09998000999999999 9.990000000000001e-06 0.90001 0.09998000999999999 9.990000000000001e-06 9.999999999998899e-05 0.0009000000000000119 0.999</probabilities>
		</cpt>
		<cpt id="失效6_3_1_3_4_a" target="true" diagtype="target">
			<state id="发生" fault="true" />
			<state id="未发生" />
			<probabilities>0.0001 0.9999</probabilities>
		</cpt>
		<cpt id="锈蚀6_3_1_3_4_b" target="true" diagtype="target">
			<state id="发生" fault="true" />
			<state id="未发生" />
			<probabilities>0.0001 0.9999</probabilities>
		</cpt>
		<cpt id="可转导叶传动机构6_3_1_3_4" target="true" diagtype="target">
			<state id="故障" fault="true" />
			<state id="劣化" />
			<state id="正常" />
			<parents>失效6_3_1_3_4_a 锈蚀6_3_1_3_4_b</parents>
			<probabilities>0.9999900001000001 9.999890000999999e-06 9.999000000000001e-12 0.999900001 9.899909999999999e-05 9.998999999999999e-07 0.9000010000000001 0.09998900099999999 9.999e-06 9.99999999995449e-06 9.00000000000345e-05 0.9999</probabilities>
		</cpt>
		<cpt id="失效6_3_1_3_3_a" target="true" diagtype="target">
			<state id="发生" fault="true" />
			<state id="未发生" />
			<probabilities>0.0001 0.9999</probabilities>
		</cpt>
		<cpt id="锈蚀6_3_1_3_3_b" target="true" diagtype="target">
			<state id="发生" fault="true" />
			<state id="未发生" />
			<probabilities>0.0001 0.9999</probabilities>
		</cpt>
		<cpt id="可转导叶作动筒6_3_1_3_3" target="true" diagtype="target">
			<state id="故障" fault="true" />
			<state id="劣化" />
			<state id="正常" />
			<parents>失效6_3_1_3_3_a 锈蚀6_3_1_3_3_b</parents>
			<probabilities>0.9999900001000001 9.999890000999999e-06 9.999000000000001e-12 0.999900001 9.899909999999999e-05 9.998999999999999e-07 0.9000010000000001 0.09998900099999999 9.999e-06 9.99999999995449e-06 9.00000000000345e-05 0.9999</probabilities>
		</cpt>
		<cpt id="防喘装置6_3_1_3" target="true" diagtype="target">
			<state id="故障" fault="true" />
			<state id="劣化" />
			<state id="正常" />
			<parents>进口可转导叶6_3_1_3_1 进口导叶控制系统6_3_1_3_2 可转导叶传动机构6_3_1_3_4 可转导叶作动筒6_3_1_3_3</parents>
